{"learner":{"attributes":{"scikit_learn":"{\"_estimator_type\": \"regressor\"}"},"feature_names":[],"feature_types":[],"gradient_booster":{"model":{"cats":{"enc":[],"feature_segments":[],"sorted_idx":[]},"gbtree_model_param":{"num_parallel_tree":"1","num_trees":"100"},"iteration_indptr":[0,1,2,3,4,5,6,7,8,9,10,11,12,13,14,15,16,17,18,19,20,21,22,23,24,25,26,27,28,29,30,31,32,33,34,35,36,37,38,39,40,41,42,43,44,45,46,47,48,49,50,51,52,53,54,55,56,57,58,59,60,61,62,63,64,65,66,67,68,69,70,71,72,73,74,75,76,77,78,79,80,81,82,83,84,85,86,87,88,89,90,91,92,93,94,95,96,97,98,99,100],"tree_info":[0,0,0,0,0,0,0,0,0,0,0,0,0,0,0,0,0,0,0,0,0,0,0,0,0,0,0,0,0,0,0,0,0,0,0,0,0,0,0,0,0,0,0,0,0,0,0,0,0,0,0,0,0,0,0,0,0,0,0,0,0,0,0,0,0,0,0,0,0,0,0,0,0,0,0,0,0,0,0,0,0,0,0,0,0,0,0,0,0,0,0,0,0,0,0,0,0,0,0,0],"trees":[{"base_weights":[-7.2107085E-8,-1.3308202E-1,5.5062646E-1,3.2664217E-2,-3.7097302E-1,1.0752124E0,-2.843089E-2,-6.6051126E-2,6.034061E-1,4.734806E-2,-4.6561605E-1,2.898748E-1,1.547348E0,-2.943277E-1,4.1662586E-1,-1.0575334E-1,8.622074E-1,1.491035E-1,3.563569E-1,-2.6968223E-1,2.3105128E-1,-6.9989085E-1,-2.8905404E-1,4.0138483E-2,7.41035E-2,1.8124583E0,7.1393587E-3,-6.984516E-1,-6.306637E-2,7.907788E-1,7.932621E-3,5.2116435E-2,-1.7326986E-2,5.9494656E-3,1.1713936E-1,9.3363605E-2,1.1206187E-2,5.9494656E-3,-3.594133E-2,5.0506454E-2,3.5674528E-3,-7.9098344E-2,-6.636401E-3,-4.965703E-2,-3.039942E-3,8.112907E-3,-2.0537902E-2,8.169315E-2,1.9266503E-1,-2.7383868E-2,-7.806497E-2,-5.2860644E-2,1.2083876E-2,1.0594946E-1,4.7139358E-2],"categories":[],"categories_nodes":[],"categories_segments":[],"categories_sizes":[],"default_left":[0,0,0,0,0,0,0,0,0,0,0,0,0,0,0,0,0,0,0,0,0,0,0,0,0,0,0,0,0,0,0,0,0,0,0,0,0,0,0,0,0,0,0,0,0,0,0,0,0,0,0,0,0,0,0],"id":0,"left_children":[1,3,5,7,9,11,13,15,17,19,21,23,25,27,29,31,33,-1,35,37,39,41,43,45,-1,47,-1,49,51,53,-1,-1,-1,-1,-1,-1,-1,-1,-1,-1,-1,-1,-1,-1,-1,-1,-1,-1,-1,-1,-1,-1,-1,-1,-1],"loss_changes":[3.0117441E1,1.3063293E1,2.4331797E1,1.1082687E1,5.4064465E0,1.5124474E1,4.7378526E0,6.2826395E0,5.8280096E0,1.5765369E0,4.389101E0,1.8856642E0,1.0044155E1,2.2924066E0,1.8302958E0,6.9473257E0,1.6676221E0,0E0,3.2800088E0,3.1675702E-1,8.92091E-1,2.6598568E0,3.4737816E0,1.374291E-1,0E0,9.270477E-1,0E0,1.00349426E-1,1.5193344E0,1.01327896E-1,0E0,0E0,0E0,0E0,0E0,0E0,0E0,0E0,0E0,0E0,0E0,0E0,0E0,0E0,0E0,0E0,0E0,0E0,0E0,0E0,0E0,0E0,0E0,0E0,0E0],"parents":[2147483647,0,0,1,1,2,2,3,3,4,4,5,5,6,6,7,7,8,8,9,9,10,10,11,11,12,12,13,13,14,14,15,15,16,16,18,18,19,19,20,20,21,21,22,22,23,23,25,25,27,27,28,28,29,29],"right_children":[2,4,6,8,10,12,14,16,18,20,22,24,26,28,30,32,34,-1,36,38,40,42,44,46,-1,48,-1,50,52,54,-1,-1,-1,-1,-1,-1,-1,-1,-1,-1,-1,-1,-1,-1,-1,-1,-1,-1,-1,-1,-1,-1,-1,-1,-1],"split_conditions":[7.0600696E-2,2.4569477E-1,7.8606494E-2,-9.622674E-3,-6.1955024E-2,-2.3701187E-2,-9.728348E-2,1.0254031E-1,2.8597837E-2,-3.7208136E-2,2.672116E-2,2.6835317E-2,1.4218815E-2,6.260872E-4,-3.2503672E-2,-5.741686E-2,1.0920831E-1,1.491035E-1,-3.938928E-1,-2.350751E-1,-9.9346876E-2,1.5381357E-2,-2.044366E-2,2.4561001E-2,7.41035E-2,-1.0834572E-1,7.1393587E-3,-7.046598E-2,-1.0831626E-1,-6.0989287E-2,7.932621E-3,5.2116435E-2,-1.7326986E-2,5.9494656E-3,1.1713936E-1,9.3363605E-2,1.1206187E-2,5.9494656E-3,-3.594133E-2,5.0506454E-2,3.5674528E-3,-7.9098344E-2,-6.636401E-3,-4.965703E-2,-3.039942E-3,8.112907E-3,-2.0537902E-2,8.169315E-2,1.9266503E-1,-2.7383868E-2,-7.806497E-2,-5.2860644E-2,1.2083876E-2,1.0594946E-1,4.7139358E-2],"split_indices":[1100,161,408,1126,929,369,131,1249,257,1037,1036,836,1286,1232,218,1447,8,0,446,41,867,1009,266,1,0,58,0,3,223,61,0,0,0,0,0,0,0,0,0,0,0,0,0,0,0,0,0,0,0,0,0,0,0,0,0],"split_type":[0,0,0,0,0,0,0,0,0,0,0,0,0,0,0,0,0,0,0,0,0,0,0,0,0,0,0,0,0,0,0,0,0,0,0,0,0,0,0,0,0,0,0,0,0,0,0,0,0,0,0,0,0,0,0],"sum_hessian":[4.09E2,3.3E2,7.9E1,1.95E2,1.35E2,4.1E1,3.8E1,1.67E2,2.8E1,2.5E1,1.1E2,1.6E1,2.5E1,2.4E1,1.4E1,1.61E2,6E0,5E0,2.3E1,9E0,1.6E1,4.6E1,6.4E1,1.1E1,5E0,2.1E1,4E0,8E0,1.6E1,6E0,8E0,1.5E1,1.46E2,2E0,4E0,6E0,1.7E1,2E0,7E0,6E0,1E1,4E1,6E0,3.5E1,2.9E1,1E1,1E0,3E0,1.8E1,2E0,6E0,4E0,1.2E1,2E0,4E0],"tree_param":{"num_deleted":"0","num_feature":"1536","num_nodes":"55","size_leaf_vector":"1"}},{"base_weights":[1.5979407E-3,-1.1887589E-1,5.0003844E-1,4.0262994E-1,-1.8388213E-1,9.7586197E-1,-2.52084E-2,-1.1238254E-1,8.964514E-1,-2.010903E-1,1.11828566E-1,2.6451543E-1,1.40344E0,-2.707439E-1,3.85698E-1,1.7775297E-1,-5.33538E-1,4.011741E-1,1.3020836E-1,-2.970185E-1,-8.160825E-3,3.5089213E-2,6.79282E-2,1.6436832E0,6.568203E-3,-6.40323E-1,-5.915827E-2,7.3357075E-1,7.2274953E-3,9.198976E-3,4.0437937E-2,5.3284527E-3,-6.2498182E-2,6.0887035E-2,7.1703815E-3,-1.7143166E-2,-5.0005335E-2,-5.522262E-2,8.154595E-3,7.3753707E-3,-1.9511009E-2,7.5566165E-2,1.7441255E-1,-2.5558282E-2,-7.137369E-2,-4.8631784E-2,1.096845E-2,9.888618E-2,4.3368205E-2],"categories":[],"categories_nodes":[],"categories_segments":[],"categories_sizes":[],"default_left":[0,0,0,0,0,0,0,0,0,0,0,0,0,0,0,0,0,0,0,0,0,0,0,0,0,0,0,0,0,0,0,0,0,0,0,0,0,0,0,0,0,0,0,0,0,0,0,0,0],"id":1,"left_children":[1,3,5,7,9,11,13,15,17,19,-1,21,23,25,27,29,31,33,-1,35,37,39,-1,41,-1,43,45,47,-1,-1,-1,-1,-1,-1,-1,-1,-1,-1,-1,-1,-1,-1,-1,-1,-1,-1,-1,-1,-1],"loss_changes":[2.4679548E1,1.1295311E1,2.0018583E1,9.51074E0,6.8352184E0,1.2403328E1,4.039218E0,2.416489E0,3.2947454E0,5.4017315E0,0E0,1.5938561E0,8.248112E0,1.9170603E0,1.5824513E0,1.9603577E-1,4.6259236E-1,6.4063907E-1,0E0,4.886484E0,4.828054E0,1.2119655E-1,0E0,6.443176E-1,0E0,7.178879E-2,1.2794292E0,1.0706043E-1,0E0,0E0,0E0,0E0,0E0,0E0,0E0,0E0,0E0,0E0,0E0,0E0,0E0,0E0,0E0,0E0,0E0,0E0,0E0,0E0,0E0],"parents":[2147483647,0,0,1,1,2,2,3,3,4,4,5,5,6,6,7,7,8,8,9,9,11,11,12,12,13,13,14,14,15,15,16,16,17,17,19,19,20,20,21,21,23,23,25,25,26,26,27,27],"right_children":[2,4,6,8,10,12,14,16,18,20,-1,22,24,26,28,30,32,34,-1,36,38,40,-1,42,-1,44,46,48,-1,-1,-1,-1,-1,-1,-1,-1,-1,-1,-1,-1,-1,-1,-1,-1,-1,-1,-1,-1,-1],"split_conditions":[7.0600696E-2,-3.1269886E-2,7.8606494E-2,-1.928234E-3,9.844365E-2,-2.3701187E-2,-9.728348E-2,1.3334517E-1,-8.008047E-3,4.3596637E-2,1.11828566E-1,2.6835317E-2,1.4218815E-2,6.260872E-4,-3.2503672E-2,-1.161716E-2,-1.1751307E-2,2.0928769E-1,1.3020836E-1,-7.5409174E-2,-5.3491257E-2,2.4561001E-2,6.79282E-2,-1.0834572E-1,6.568203E-3,-7.046598E-2,-1.0831626E-1,-6.0989287E-2,7.2274953E-3,9.198976E-3,4.0437937E-2,5.3284527E-3,-6.2498182E-2,6.0887035E-2,7.1703815E-3,-1.7143166E-2,-5.0005335E-2,-5.522262E-2,8.154595E-3,7.3753707E-3,-1.9511009E-2,7.5566165E-2,1.7441255E-1,-2.5558282E-2,-7.137369E-2,-4.8631784E-2,1.096845E-2,9.888618E-2,4.3368205E-2],"split_indices":[1100,193,408,1473,1211,369,131,111,100,1406,0,836,1286,1232,218,15,1,162,0,1121,662,1,0,58,0,3,223,61,0,0,0,0,0,0,0,0,0,0,0,0,0,0,0,0,0,0,0,0,0],"split_type":[0,0,0,0,0,0,0,0,0,0,0,0,0,0,0,0,0,0,0,0,0,0,0,0,0,0,0,0,0,0,0,0,0,0,0,0,0,0,0,0,0,0,0,0,0,0,0,0,0],"sum_hessian":[4.09E2,3.3E2,7.9E1,3.6E1,2.94E2,4.1E1,3.8E1,1.8E1,1.8E1,2.91E2,3E0,1.6E1,2.5E1,2.4E1,1.4E1,1.1E1,7E0,9E0,9E0,1.94E2,9.7E1,1.1E1,5E0,2.1E1,4E0,8E0,1.6E1,6E0,8E0,9E0,2E0,1E0,6E0,5E0,4E0,1.21E2,7.3E1,1.3E1,8.4E1,1E1,1E0,3E0,1.8E1,2E0,6E0,4E0,1.2E1,2E0,4E0],"tree_param":{"num_deleted":"0","num_feature":"1536","num_nodes":"49","size_leaf_vector":"1"}},{"base_weights":[2.6956704E-3,7.614363E-1,-6.3550726E-2,1.4093294E0,1.4322928E-1,-1.2792604E-1,4.992995E-1,3.924142E-1,1.6138165E-1,5.314522E-2,3.0154547E-2,4.6254045E-1,-1.643167E-1,8.4331626E-1,-1.7525305E-1,6.185615E-3,4.8198152E-2,9.319825E-2,-2.5308633E-2,-3.3693124E-2,8.716127E-1,-2.4861054E-1,2.721705E-2,1.2554435E0,1.671935E-1,-5.2942153E-2,8.03318E-2,1.0480924E-2,5.365882E-3,-3.653903E-2,9.4904965E-3,3.7568926E-3,9.5126025E-2,-4.005722E-2,-6.4415126E-3,3.423893E-2,-8.9726355E-3,5.062032E-3,1.3323903E-1,5.4404814E-2,-1.2587316E-2,1.4485478E-3,8.675191E-3],"categories":[],"categories_nodes":[],"categories_segments":[],"categories_sizes":[],"default_left":[0,0,0,0,0,0,0,0,0,0,0,0,0,0,0,0,0,0,0,0,0,0,0,0,0,0,0,0,0,0,0,0,0,0,0,0,0,0,0,0,0,0,0],"id":2,"left_children":[1,3,5,7,9,11,13,15,-1,-1,17,19,21,23,25,-1,-1,27,-1,29,31,33,35,37,39,-1,41,-1,-1,-1,-1,-1,-1,-1,-1,-1,-1,-1,-1,-1,-1,-1,-1],"loss_changes":[2.0656559E1,1.3015705E1,1.3760198E1,2.6938496E0,7.741418E-1,7.3817434E0,9.198032E0,8.861524E-2,0E0,0E0,2.9143548E-1,4.0892754E0,5.1893473E0,7.034958E0,1.3098106E0,0E0,0E0,3.4425408E-4,0E0,4.6123356E-1,6.9498634E-1,6.2161093E0,3.6795955E0,1.4158726E0,1.2833598E0,0E0,2.5480203E-3,0E0,0E0,0E0,0E0,0E0,0E0,0E0,0E0,0E0,0E0,0E0,0E0,0E0,0E0,0E0,0E0],"parents":[2147483647,0,0,1,1,2,2,3,3,4,4,5,5,6,6,7,7,10,10,11,11,12,12,13,13,14,14,17,17,19,19,20,20,21,21,22,22,23,23,24,24,26,26],"right_children":[2,4,6,8,10,12,14,16,-1,-1,18,20,22,24,26,-1,-1,28,-1,30,32,34,36,38,40,-1,42,-1,-1,-1,-1,-1,-1,-1,-1,-1,-1,-1,-1,-1,-1,-1,-1],"split_conditions":[-1.269819E-1,7.7391624E-2,7.907638E-2,-5.97698E-2,-8.2295254E-2,-1.0353687E-1,1.6041517E-3,-3.3006206E-2,1.6138165E-1,5.314522E-2,1.7854413E-2,2.0229545E-1,-2.980413E-2,-4.4500917E-2,1.5557604E-3,6.185615E-3,4.8198152E-2,-4.561984E-3,-2.5308633E-2,1.4742917E-1,9.2933156E-2,3.7580814E-2,-3.9770354E-2,6.3428104E-2,-9.56282E-2,-5.2942153E-2,-4.090151E-2,1.0480924E-2,5.365882E-3,-3.653903E-2,9.4904965E-3,3.7568926E-3,9.5126025E-2,-4.005722E-2,-6.4415126E-3,3.423893E-2,-8.9726355E-3,5.062032E-3,1.3323903E-1,5.4404814E-2,-1.2587316E-2,1.4485478E-3,8.675191E-3],"split_indices":[1121,284,1455,267,325,853,1286,0,0,0,23,702,250,423,196,0,0,100,0,22,19,1225,933,24,40,0,0,0,0,0,0,0,0,0,0,0,0,0,0,0,0,0,0],"split_type":[0,0,0,0,0,0,0,0,0,0,0,0,0,0,0,0,0,0,0,0,0,0,0,0,0,0,0,0,0,0,0,0,0,0,0,0,0,0,0,0,0,0,0],"sum_hessian":[4.09E2,3.2E1,3.77E2,1.5E1,1.7E1,3.39E2,3.8E1,3E0,1.2E1,3E0,1.4E1,1.9E1,3.2E2,2.5E1,1.3E1,1E0,2E0,1.2E1,2E0,9E0,1E1,2.22E2,9.8E1,1.5E1,1E1,5E0,8E0,8E0,4E0,2E0,7E0,1E0,9E0,1.21E2,1.01E2,2.6E1,7.2E1,1E0,1.4E1,4E0,6E0,1E0,7E0],"tree_param":{"num_deleted":"0","num_feature":"1536","num_nodes":"43","size_leaf_vector":"1"}},{"base_weights":[3.517223E-3,-9.737869E-2,4.2093012E-1,3.755113E-2,-2.9112035E-1,8.2055074E-1,-2.0223618E-2,2.926072E-1,-1.0646896E-1,-5.837798E-1,-1.8784389E-1,1.7024691E-1,1.1396223E0,-2.3375165E-1,3.370047E-1,5.438599E-1,-3.0602641E-2,-4.93703E-1,-5.7308013E-3,-7.103662E-1,-1.3915628E-1,-2.441476E-2,-3.573219E-1,7.381717E-3,4.1697443E-2,1.3632182E0,2.740893E-1,-5.68417E-1,-4.2825796E-2,6.37976E-1,6.5470967E-3,2.7847959E-2,1.0168176E-1,3.1279407E-2,-3.1506643E-2,-6.1297704E-2,6.0398976E-4,-6.438784E-3,6.010286E-2,-7.773832E-2,-2.6001448E-2,-3.4013223E-2,8.965092E-3,2.2896912E-2,-2.1162167E-2,-6.0326155E-2,-1.4253852E-2,6.533617E-2,1.4409135E-1,6.7232184E-2,-1.9668054E-3,-2.3424959E-2,-6.304292E-2,-4.2830676E-2,1.0873041E-2,8.468159E-2,3.850768E-2],"categories":[],"categories_nodes":[],"categories_segments":[],"categories_sizes":[],"default_left":[0,0,0,0,0,0,0,0,0,0,0,0,0,0,0,0,0,0,0,0,0,0,0,0,0,0,0,0,0,0,0,0,0,0,0,0,0,0,0,0,0,0,0,0,0,0,0,0,0,0,0,0,0,0,0,0,0],"id":3,"left_children":[1,3,5,7,9,11,13,15,17,19,21,23,25,27,29,31,33,35,37,39,41,43,45,-1,-1,47,49,51,53,55,-1,-1,-1,-1,-1,-1,-1,-1,-1,-1,-1,-1,-1,-1,-1,-1,-1,-1,-1,-1,-1,-1,-1,-1,-1,-1,-1],"loss_changes":[1.7308245E1,8.663778E0,1.4120126E1,7.23086E0,4.0009184E0,8.52071E0,3.0536277E0,5.7823644E0,4.9123354E0,1.8710623E0,2.816435E0,3.2609823E-1,5.045185E0,1.5730639E0,1.1840887E0,4.737383E0,3.2244365E0,1.5534673E0,3.6333604E0,6.1276245E-1,4.4435588E-1,2.562521E0,2.5551991E0,0E0,0E0,2.7191544E-1,8.3210945E-1,3.882432E-2,1.0397445E0,4.3619156E-2,0E0,0E0,0E0,0E0,0E0,0E0,0E0,0E0,0E0,0E0,0E0,0E0,0E0,0E0,0E0,0E0,0E0,0E0,0E0,0E0,0E0,0E0,0E0,0E0,0E0,0E0,0E0],"parents":[2147483647,0,0,1,1,2,2,3,3,4,4,5,5,6,6,7,7,8,8,9,9,10,10,11,11,12,12,13,13,14,14,15,15,16,16,17,17,18,18,19,19,20,20,21,21,22,22,25,25,26,26,27,27,28,28,29,29],"right_children":[2,4,6,8,10,12,14,16,18,20,22,24,26,28,30,32,34,36,38,40,42,44,46,-1,-1,48,50,52,54,56,-1,-1,-1,-1,-1,-1,-1,-1,-1,-1,-1,-1,-1,-1,-1,-1,-1,-1,-1,-1,-1,-1,-1,-1,-1,-1,-1],"split_conditions":[7.0600696E-2,2.4569477E-1,7.8606494E-2,-8.068061E-2,2.5843443E-2,-2.7326873E-1,-9.728348E-2,5.6357708E-2,-6.371632E-3,8.5045904E-2,-3.7123103E-2,5.2389503E-2,-3.3089478E-2,6.260872E-4,-3.2503672E-2,-8.0485746E-2,-5.847002E-2,3.765486E-2,3.189228E-2,-9.844565E-3,-1.979866E-3,2.8341087E-2,7.079938E-3,7.381717E-3,4.1697443E-2,1.556503E-1,-1.168272E-1,-7.046598E-2,-1.0831626E-1,-6.0989287E-2,6.5470967E-3,2.7847959E-2,1.0168176E-1,3.1279407E-2,-3.1506643E-2,-6.1297704E-2,6.0398976E-4,-6.438784E-3,6.010286E-2,-7.773832E-2,-2.6001448E-2,-3.4013223E-2,8.965092E-3,2.2896912E-2,-2.1162167E-2,-6.0326155E-2,-1.4253852E-2,6.533617E-2,1.4409135E-1,6.7232184E-2,-1.9668054E-3,-2.3424959E-2,-6.304292E-2,-4.2830676E-2,1.0873041E-2,8.468159E-2,3.850768E-2],"split_indices":[1100,161,408,1039,826,507,131,388,901,1000,1234,45,1055,1232,218,58,1353,1202,633,894,28,444,1257,0,0,247,2,3,223,61,0,0,0,0,0,0,0,0,0,0,0,0,0,0,0,0,0,0,0,0,0,0,0,0,0,0,0],"split_type":[0,0,0,0,0,0,0,0,0,0,0,0,0,0,0,0,0,0,0,0,0,0,0,0,0,0,0,0,0,0,0,0,0,0,0,0,0,0,0,0,0,0,0,0,0,0,0,0,0,0,0,0,0,0,0,0,0],"sum_hessian":[4.09E2,3.3E2,7.9E1,1.95E2,1.35E2,4.1E1,3.8E1,7E1,1.25E2,3.4E1,1.01E2,1.4E1,2.7E1,2.4E1,1.4E1,3.9E1,3.1E1,2.5E1,1E2,2.6E1,8E0,5.2E1,4.9E1,1.1E1,3E0,2.1E1,6E0,8E0,1.6E1,6E0,8E0,2.6E1,1.3E1,1.4E1,1.7E1,2E1,5E0,9.2E1,8E0,2.2E1,4E0,4E0,4E0,2.2E1,3E1,2.2E1,2.7E1,3E0,1.8E1,2E0,4E0,2E0,6E0,4E0,1.2E1,2E0,4E0],"tree_param":{"num_deleted":"0","num_feature":"1536","num_nodes":"57","size_leaf_vector":"1"}},{"base_weights":[3.7891904E-3,6.390295E-1,-5.1678322E-2,1.1829526E0,1.2004069E-1,-1.0571223E-1,4.2071155E-1,1.3161097E-1,1.6723578E-1,4.4418514E-2,2.5599463E-2,-1.7524038E-1,1.22444764E-1,8.88021E-1,5.701714E-2,4.483938E-3,2.0601427E-2,7.7705674E-2,-2.0872729E-2,-2.4821147E-2,-2.881406E-1,3.242428E-1,-1.20840594E-1,3.7553623E-1,1.2092067E-1,6.3386303E-1,-1.838616E-1,9.448844E-3,4.237771E-3,1.9599844E-2,-1.9694863E-2,3.6888715E-2,-3.2803502E-2,7.178403E-2,1.1663597E-2,2.3326462E-3,-6.463619E-2,5.140978E-2,1.0845018E-2,7.317333E-2,2.3320795E-3,-4.7642406E-2,6.8574524E-3],"categories":[],"categories_nodes":[],"categories_segments":[],"categories_sizes":[],"default_left":[0,0,0,0,0,0,0,0,0,0,0,0,0,0,0,0,0,0,0,0,0,0,0,0,0,0,0,0,0,0,0,0,0,0,0,0,0,0,0,0,0,0,0],"id":4,"left_children":[1,3,5,7,9,11,13,-1,15,-1,17,19,21,23,25,-1,-1,27,-1,29,31,33,35,37,-1,39,41,-1,-1,-1,-1,-1,-1,-1,-1,-1,-1,-1,-1,-1,-1,-1,-1],"loss_changes":[1.4479457E1,9.173568E0,9.69295E0,1.9438992E0,5.396559E-1,5.4149914E0,6.577722E0,0E0,5.001493E-3,0E0,1.9936748E-1,4.4252443E0,3.9667425E0,2.3441467E0,3.3123913E0,0E0,0E0,3.7035197E-3,0E0,4.3336315E0,4.026555E0,3.5116696E0,2.8183036E0,2.4030888E-1,0E0,4.012127E-1,1.288177E0,0E0,0E0,0E0,0E0,0E0,0E0,0E0,0E0,0E0,0E0,0E0,0E0,0E0,0E0,0E0,0E0],"parents":[2147483647,0,0,1,1,2,2,3,3,4,4,5,5,6,6,8,8,10,10,11,11,12,12,13,13,14,14,17,17,19,19,20,20,21,21,22,22,23,23,25,25,26,26],"right_children":[2,4,6,8,10,12,14,-1,16,-1,18,20,22,24,26,-1,-1,28,-1,30,32,34,36,38,-1,40,42,-1,-1,-1,-1,-1,-1,-1,-1,-1,-1,-1,-1,-1,-1,-1,-1],"split_conditions":[-1.269819E-1,7.7391624E-2,7.907638E-2,-4.350708E-1,-8.2295254E-2,-1.6722724E-2,-5.8870964E-2,1.3161097E-1,-3.3006206E-2,4.4418514E-2,1.7854413E-2,2.3458193E-1,-1.7614983E-2,-7.763685E-2,4.402953E-2,4.483938E-3,2.0601427E-2,-9.47564E-2,-2.0872729E-2,5.1205836E-2,-1.2451488E-1,2.05353E-2,1.2841748E-1,2.9951172E-2,1.2092067E-1,2.086556E-2,-2.861363E-1,9.448844E-3,4.237771E-3,1.9599844E-2,-1.9694863E-2,3.6888715E-2,-3.2803502E-2,7.178403E-2,1.1663597E-2,2.3326462E-3,-6.463619E-2,5.140978E-2,1.0845018E-2,7.317333E-2,2.3320795E-3,-4.7642406E-2,6.8574524E-3],"split_indices":[1121,284,1455,26,325,1037,1274,0,0,0,23,161,1224,73,459,0,0,128,0,1004,867,353,616,18,0,1,153,0,0,0,0,0,0,0,0,0,0,0,0,0,0,0,0],"split_type":[0,0,0,0,0,0,0,0,0,0,0,0,0,0,0,0,0,0,0,0,0,0,0,0,0,0,0,0,0,0,0,0,0,0,0,0,0,0,0,0,0,0,0],"sum_hessian":[4.09E2,3.2E1,3.77E2,1.5E1,1.7E1,3.39E2,3.8E1,1.3E1,2E0,3E0,1.4E1,2.6E2,7.9E1,1.6E1,2.2E1,1E0,1E0,1.2E1,2E0,1.12E2,1.48E2,4.3E1,3.6E1,7E0,9E0,6E0,1.6E1,7E0,5E0,4.9E1,6.3E1,8E0,1.4E2,1.4E1,2.9E1,2.9E1,7E0,4E0,3E0,5E0,1E0,7E0,9E0],"tree_param":{"num_deleted":"0","num_feature":"1536","num_nodes":"43","size_leaf_vector":"1"}},{"base_weights":[4.476023E-3,-7.978225E-2,3.5303867E-1,-1.3746484E-1,2.631685E-1,6.873276E-1,-1.60171E-2,-1.8628865E-1,1.5644929E-1,4.7393676E-2,9.065436E-1,1.9203031E-1,9.847402E-1,-2.0692348E-1,3.0322802E-1,-2.1396978E-1,3.2204276E-1,-5.0650258E-2,4.8320794E-1,-2.752078E-1,2.132507E-1,1.1825111E-1,2.8368688E-1,3.604154E-2,4.7200277E-2,1.1512059E0,5.534272E-3,-5.0259538E-2,-3.8219355E-2,5.615245E-2,6.863872E-3,-2.99631E-2,-7.268208E-4,5.389452E-3,5.4418493E-2,-2.1963848E-2,2.4169473E-2,6.738233E-2,5.321181E-3,-4.8165653E-2,1.5144149E-2,4.8163034E-2,8.212361E-3,-1.4637756E-2,4.277974E-2,7.0980336E-3,-1.741426E-2,1.2336578E-1,6.24138E-2,-3.8530733E-2,9.821597E-3],"categories":[],"categories_nodes":[],"categories_segments":[],"categories_sizes":[],"default_left":[0,0,0,0,0,0,0,0,0,0,0,0,0,0,0,0,0,0,0,0,0,0,0,0,0,0,0,0,0,0,0,0,0,0,0,0,0,0,0,0,0,0,0,0,0,0,0,0,0,0,0],"id":5,"left_children":[1,3,5,7,9,11,13,15,17,19,21,23,25,27,29,31,33,35,37,39,41,-1,43,45,-1,47,-1,-1,49,-1,-1,-1,-1,-1,-1,-1,-1,-1,-1,-1,-1,-1,-1,-1,-1,-1,-1,-1,-1,-1,-1],"loss_changes":[1.2069573E1,6.5841136E0,9.880711E0,4.1045485E0,6.620595E0,5.997822E0,2.4396362E0,3.5022764E0,2.799009E0,2.0383997E0,1.7271957E0,7.254219E-1,3.9588242E0,1.2278178E0,8.703618E-1,4.105685E0,7.450428E-1,1.3375598E0,1.2755661E0,1.2179985E0,8.4024286E-1,0E0,3.7250394E-1,1.0048366E-1,0E0,1.8609619E-1,0E0,0E0,8.4287924E-1,0E0,0E0,0E0,0E0,0E0,0E0,0E0,0E0,0E0,0E0,0E0,0E0,0E0,0E0,0E0,0E0,0E0,0E0,0E0,0E0,0E0,0E0],"parents":[2147483647,0,0,1,1,2,2,3,3,4,4,5,5,6,6,7,7,8,8,9,9,10,10,11,11,12,12,13,13,14,14,15,15,16,16,17,17,18,18,19,19,20,20,22,22,23,23,25,25,28,28],"right_children":[2,4,6,8,10,12,14,16,18,20,22,24,26,28,30,32,34,36,38,40,42,-1,44,46,-1,48,-1,-1,50,-1,-1,-1,-1,-1,-1,-1,-1,-1,-1,-1,-1,-1,-1,-1,-1,-1,-1,-1,-1,-1,-1],"split_conditions":[7.0600696E-2,2.3027778E-2,7.8606494E-2,5.55398E-2,-8.2831554E-2,-2.3701187E-2,-9.728348E-2,3.475141E-2,2.6923966E-2,3.5299003E-2,5.2479807E-2,2.6835317E-2,1.4218815E-2,6.260872E-4,-3.2503672E-2,6.104801E-2,-1.1533306E-1,2.3363417E-2,2.390585E-2,2.8927667E-2,-1.1263324E-1,1.1825111E-1,-2.4474222E-2,2.4561001E-2,4.7200277E-2,-1.0688707E-1,5.534272E-3,-5.0259538E-2,-1.0831626E-1,5.615245E-2,6.863872E-3,-2.99631E-2,-7.268208E-4,5.389452E-3,5.4418493E-2,-2.1963848E-2,2.4169473E-2,6.738233E-2,5.321181E-3,-4.8165653E-2,1.5144149E-2,4.8163034E-2,8.212361E-3,-1.4637756E-2,4.277974E-2,7.0980336E-3,-1.741426E-2,1.2336578E-1,6.24138E-2,-3.8530733E-2,9.821597E-3],"split_indices":[1100,1009,408,1406,1529,369,131,1371,772,1017,510,836,1286,1232,218,1294,60,962,550,56,1195,0,0,1,0,1533,0,0,223,0,0,0,0,0,0,0,0,0,0,0,0,0,0,0,0,0,0,0,0,0,0],"split_type":[0,0,0,0,0,0,0,0,0,0,0,0,0,0,0,0,0,0,0,0,0,0,0,0,0,0,0,0,0,0,0,0,0,0,0,0,0,0,0,0,0,0,0,0,0,0,0,0,0,0,0],"sum_hessian":[4.09E2,3.3E2,7.9E1,2.83E2,4.7E1,4.1E1,3.8E1,2.43E2,4E1,3.6E1,1.1E1,1.6E1,2.5E1,2.4E1,1.4E1,2.31E2,1.2E1,2.5E1,1.5E1,1.2E1,2.4E1,7E0,4E0,1.1E1,5E0,2.1E1,4E0,8E0,1.6E1,6E0,8E0,1.63E2,6.8E1,6E0,6E0,1.6E1,9E0,1E1,5E0,8E0,4E0,7E0,1.7E1,1E0,3E0,1E1,1E0,1.7E1,4E0,4E0,1.2E1],"tree_param":{"num_deleted":"0","num_feature":"1536","num_nodes":"51","size_leaf_vector":"1"}},{"base_weights":[5.2138246E-3,5.784448E-1,-3.8317356E-2,1.0668383E-1,2.2071332E-1,-8.311671E-2,3.5781842E-1,5.413789E-2,5.4484118E-2,4.008162E-1,-1.142262E-1,7.531118E-1,5.0087772E-2,-1.4283228E-2,8.245476E-2,7.566459E-1,8.548629E-3,-2.0138359E-1,9.285874E-3,3.3747748E-1,1.01030804E-1,5.422839E-1,-1.5552756E-1,4.199787E-3,1.0535284E-2,6.260562E-3,8.197894E-2,-2.8023457E-2,1.03859855E-2,-3.6634035E-2,-9.533073E-3,1.516839E-2,-1.76713E-2,4.4936806E-2,1.13244895E-2,2.853334E-3,6.2315345E-2,4.3776776E-3,-4.465019E-2],"categories":[],"categories_nodes":[],"categories_segments":[],"categories_sizes":[],"default_left":[0,0,0,0,0,0,0,0,0,0,0,0,0,0,0,0,0,0,0,0,0,0,0,0,0,0,0,0,0,0,0,0,0,0,0,0,0,0,0],"id":6,"left_children":[1,3,5,-1,7,9,11,13,-1,15,17,19,21,-1,23,25,27,29,31,33,-1,35,37,-1,-1,-1,-1,-1,-1,-1,-1,-1,-1,-1,-1,-1,-1,-1,-1],"loss_changes":[1.0253066E1,4.831232E0,6.8089523E0,0E0,9.4235456E-1,5.224671E0,4.7063894E0,8.428573E-2,0E0,2.9247217E0,3.4897265E0,1.4763365E0,2.412011E0,0E0,6.692022E-3,4.307418E-1,3.318722E-1,3.288962E0,3.6023977E0,1.4982754E-1,0E0,2.7304673E-1,1.0054181E0,0E0,0E0,0E0,0E0,0E0,0E0,0E0,0E0,0E0,0E0,0E0,0E0,0E0,0E0,0E0,0E0],"parents":[2147483647,0,0,1,1,2,2,4,4,5,5,6,6,7,7,9,9,10,10,11,11,12,12,14,14,15,15,16,16,17,17,18,18,19,19,21,21,22,22],"right_children":[2,4,6,-1,8,10,12,14,-1,16,18,20,22,-1,24,26,28,30,32,34,-1,36,38,-1,-1,-1,-1,-1,-1,-1,-1,-1,-1,-1,-1,-1,-1,-1,-1],"split_conditions":[-1.3122763E-1,1.825285E-2,7.907638E-2,1.0668383E-1,4.4964828E-2,-1.0353687E-1,-5.8870964E-2,4.1944653E-2,5.4484118E-2,1.8795753E-1,3.8862113E-2,-7.763685E-2,-1.2022192E-2,-1.4283228E-2,-7.1591586E-2,-2.1268475E-1,-2.6389068E-1,-4.3500826E-2,1.08134605E-1,2.9951172E-2,1.01030804E-1,-4.090151E-2,7.463748E-2,4.199787E-3,1.0535284E-2,6.260562E-3,8.197894E-2,-2.8023457E-2,1.03859855E-2,-3.6634035E-2,-9.533073E-3,1.516839E-2,-1.76713E-2,4.4936806E-2,1.13244895E-2,2.853334E-3,6.2315345E-2,4.3776776E-3,-4.465019E-2],"split_indices":[1121,884,1455,0,793,853,1274,8,0,384,1406,73,1168,0,220,20,9,1050,850,18,0,0,332,0,0,0,0,0,0,0,0,0,0,0,0,0,0,0,0],"split_type":[0,0,0,0,0,0,0,0,0,0,0,0,0,0,0,0,0,0,0,0,0,0,0,0,0,0,0,0,0,0,0,0,0,0,0,0,0,0,0],"sum_hessian":[4.09E2,2.8E1,3.81E2,1.1E1,1.7E1,3.43E2,3.8E1,1.2E1,5E0,2E1,3.23E2,1.6E1,2.2E1,1E0,1.1E1,1E1,1E1,1.89E2,1.34E2,7E0,9E0,6E0,1.6E1,5E0,6E0,1E0,9E0,2E0,8E0,7.3E1,1.16E2,7.6E1,5.8E1,4E0,3E0,1E0,5E0,1E1,6E0],"tree_param":{"num_deleted":"0","num_feature":"1536","num_nodes":"39","size_leaf_vector":"1"}},{"base_weights":[5.584504E-3,-6.60216E-2,3.0178496E-1,3.8577028E-2,-2.1628122E-1,5.8449125E-1,-1.0406091E-2,-2.3133332E-2,3.9474127E-1,1.06917225E-1,-2.900369E-1,1.7364275E-1,8.306426E-1,-1.687633E-1,2.8442913E-1,-1.1935482E-1,1.8221119E-1,9.45495E-2,2.406053E-1,-1.3550921E-1,2.4323176E-1,-4.652146E-2,-3.7559086E-1,4.3229163E-2,4.055295E-2,9.6776396E-1,6.1179926E-3,-4.3835112E-1,-2.459363E-2,5.2005816E-2,9.573989E-2,-4.814506E-2,-5.1629525E-3,4.054138E-2,-5.6006736E-3,4.072916E-2,-3.3484697E-3,1.1051488E-2,-2.1082958E-2,4.207597E-2,1.0814748E-2,-5.35388E-2,9.800301E-3,-4.610802E-2,-8.751988E-3,7.6371604E-3,-1.6066885E-2,1.03729546E-1,5.2389767E-2,-1.8647965E-2,-4.836745E-2,-3.4143597E-2,9.032103E-3,1.162539E-2,4.1033924E-3],"categories":[],"categories_nodes":[],"categories_segments":[],"categories_sizes":[],"default_left":[0,0,0,0,0,0,0,0,0,0,0,0,0,0,0,0,0,0,0,0,0,0,0,0,0,0,0,0,0,0,0,0,0,0,0,0,0,0,0,0,0,0,0,0,0,0,0,0,0,0,0,0,0,0,0],"id":7,"left_children":[1,3,5,7,9,11,13,15,17,19,21,23,25,27,29,31,33,-1,35,37,39,41,43,45,-1,47,-1,49,51,-1,53,-1,-1,-1,-1,-1,-1,-1,-1,-1,-1,-1,-1,-1,-1,-1,-1,-1,-1,-1,-1,-1,-1,-1,-1],"loss_changes":[8.715925E0,5.210654E0,7.066754E0,4.31702E0,3.2729392E0,4.103262E0,1.8688831E0,3.3411853E0,2.2343469E0,8.921626E-1,2.2950687E0,4.965694E-1,2.6840458E0,9.9974537E-1,5.726588E-1,2.7952929E0,2.8939323E0,0E0,1.1101273E0,2.0860606E-1,3.6217678E-1,2.172065E0,1.9790602E0,9.336268E-2,0E0,1.3554192E-1,0E0,1.2545466E-2,6.862157E-1,0E0,5.3297877E-3,0E0,0E0,0E0,0E0,0E0,0E0,0E0,0E0,0E0,0E0,0E0,0E0,0E0,0E0,0E0,0E0,0E0,0E0,0E0,0E0,0E0,0E0,0E0,0E0],"parents":[2147483647,0,0,1,1,2,2,3,3,4,4,5,5,6,6,7,7,8,8,9,9,10,10,11,11,12,12,13,13,14,14,15,15,16,16,18,18,19,19,20,20,21,21,22,22,23,23,25,25,27,27,28,28,30,30],"right_children":[2,4,6,8,10,12,14,16,18,20,22,24,26,28,30,32,34,-1,36,38,40,42,44,46,-1,48,-1,50,52,-1,54,-1,-1,-1,-1,-1,-1,-1,-1,-1,-1,-1,-1,-1,-1,-1,-1,-1,-1,-1,-1,-1,-1,-1,-1],"split_conditions":[7.0600696E-2,2.4569477E-1,7.8606494E-2,-9.622674E-3,-6.1955024E-2,-2.3701187E-2,-9.405845E-2,1.4233337E-2,2.8597837E-2,-3.7208136E-2,3.639408E-2,2.6835317E-2,1.4218815E-2,6.260872E-4,-1.360648E-3,4.3048017E-4,-1.9383864E-1,9.45495E-2,5.097724E-2,-2.350751E-1,-9.9346876E-2,-8.072276E-3,7.938679E-3,2.4561001E-2,4.055295E-2,-1.0688707E-1,6.1179926E-3,-7.046598E-2,-1.0831626E-1,5.2005816E-2,1.5415338E-2,-4.814506E-2,-5.1629525E-3,4.054138E-2,-5.6006736E-3,4.072916E-2,-3.3484697E-3,1.1051488E-2,-2.1082958E-2,4.207597E-2,1.0814748E-2,-5.35388E-2,9.800301E-3,-4.610802E-2,-8.751988E-3,7.6371604E-3,-1.6066885E-2,1.03729546E-1,5.2389767E-2,-1.8647965E-2,-4.836745E-2,-3.4143597E-2,9.032103E-3,1.162539E-2,4.1033924E-3],"split_indices":[1100,161,408,1126,929,369,131,1031,257,1037,403,836,1286,1232,66,1145,91,0,1355,41,867,995,1272,1,0,1533,0,3,223,0,108,0,0,0,0,0,0,0,0,0,0,0,0,0,0,0,0,0,0,0,0,0,0,0,0],"split_type":[0,0,0,0,0,0,0,0,0,0,0,0,0,0,0,0,0,0,0,0,0,0,0,0,0,0,0,0,0,0,0,0,0,0,0,0,0,0,0,0,0,0,0,0,0,0,0,0,0,0,0,0,0,0,0],"sum_hessian":[4.09E2,3.3E2,7.9E1,1.95E2,1.35E2,4.1E1,3.8E1,1.67E2,2.8E1,2.5E1,1.1E2,1.6E1,2.5E1,2.5E1,1.3E1,1.14E2,5.3E1,5E0,2.3E1,9E0,1.6E1,2.9E1,8.1E1,1.1E1,5E0,2.1E1,4E0,8E0,1.7E1,5E0,8E0,1.7E1,9.7E1,2.7E1,2.6E1,1.4E1,9E0,2E0,7E0,6E0,1E1,6E0,2.3E1,6.2E1,1.9E1,1E1,1E0,1.7E1,4E0,2E0,6E0,4E0,1.3E1,5E0,3E0],"tree_param":{"num_deleted":"0","num_feature":"1536","num_nodes":"55","size_leaf_vector":"1"}},{"base_weights":[5.581654E-3,-4.645476E-2,3.569676E-1,-1.1435578E-1,1.6005905E-1,7.179548E-2,7.258097E-1,-1.4333622E-1,4.258106E-1,7.044904E-2,5.096069E-1,-3.3849978E-1,2.2922425E-1,8.653874E-1,1.8610843E-1,-2.6586553E-1,-3.5750315E-2,6.862967E-2,-3.5886925E-2,2.1215378E-1,-1.884191E-1,8.205162E-2,1.7882785E-1,3.6922295E-3,-4.5103785E-1,5.6166667E-1,1.05675444E-1,3.6569294E-2,9.409467E-2,5.6097587E-3,2.3708945E-2,-4.4120856E-2,-1.157181E-2,-8.535203E-3,3.2231785E-2,9.540892E-3,-3.4618307E-2,-3.8893837E-2,2.6197685E-2,-4.488158E-2,1.0650186E-2,2.5597883E-2,5.048113E-3,-1.7623765E-2,-5.257104E-2,6.216674E-2,1.3083148E-2,1.5312227E-2,-3.504603E-2],"categories":[],"categories_nodes":[],"categories_segments":[],"categories_sizes":[],"default_left":[0,0,0,0,0,0,0,0,0,0,0,0,0,0,0,0,0,0,0,0,0,0,0,0,0,0,0,0,0,0,0,0,0,0,0,0,0,0,0,0,0,0,0,0,0,0,0,0,0],"id":8,"left_children":[1,3,5,7,9,11,13,15,17,19,21,23,25,27,29,31,33,-1,35,37,39,-1,41,-1,43,45,47,-1,-1,-1,-1,-1,-1,-1,-1,-1,-1,-1,-1,-1,-1,-1,-1,-1,-1,-1,-1,-1,-1],"loss_changes":[7.5133777E0,5.0383577E0,5.522615E0,4.287684E0,2.7518442E0,2.0799532E0,1.5715389E0,3.3783784E0,1.7083495E0,2.6811385E0,1.7044301E0,3.968966E-1,8.853215E-1,3.355217E-1,2.6468366E-2,3.108221E0,2.4785001E0,0E0,2.774725E-1,1.5094609E0,2.044507E0,0E0,8.609864E-2,0E0,5.0990343E-2,7.376897E-2,4.432228E-1,0E0,0E0,0E0,0E0,0E0,0E0,0E0,0E0,0E0,0E0,0E0,0E0,0E0,0E0,0E0,0E0,0E0,0E0,0E0,0E0,0E0,0E0],"parents":[2147483647,0,0,1,1,2,2,3,3,4,4,5,5,6,6,7,7,8,8,9,9,10,10,11,11,12,12,13,13,14,14,15,15,16,16,18,18,19,19,20,20,22,22,24,24,25,25,26,26],"right_children":[2,4,6,8,10,12,14,16,18,20,22,24,26,28,30,32,34,-1,36,38,40,-1,42,-1,44,46,48,-1,-1,-1,-1,-1,-1,-1,-1,-1,-1,-1,-1,-1,-1,-1,-1,-1,-1,-1,-1,-1,-1],"split_conditions":[-8.97612E-2,-7.038375E-1,-6.3085556E-2,8.1887044E-2,7.2281495E-2,-4.274473E-4,-3.643674E-2,4.339283E-2,1.6949486E-2,-9.41923E-2,3.7596233E-3,1.5823312E-2,5.2292712E-2,2.3408191E-1,-2.927414E-2,-7.413135E-2,8.399924E-2,6.862967E-2,-5.746823E-2,5.575094E-2,9.765938E-2,8.205162E-2,9.057254E-3,3.6922295E-3,-7.122248E-2,-2.0420942E-2,8.449448E-2,3.6569294E-2,9.409467E-2,5.6097587E-3,2.3708945E-2,-4.4120856E-2,-1.157181E-2,-8.535203E-3,3.2231785E-2,9.540892E-3,-3.4618307E-2,-3.8893837E-2,2.6197685E-2,-4.488158E-2,1.0650186E-2,2.5597883E-2,5.048113E-3,-1.7623765E-2,-5.257104E-2,6.216674E-2,1.3083148E-2,1.5312227E-2,-3.504603E-2],"split_indices":[302,1221,73,1287,1330,1309,558,1294,1487,228,349,56,735,22,0,472,888,0,3,1475,650,0,1,0,64,0,6,0,0,0,0,0,0,0,0,0,0,0,0,0,0,0,0,0,0,0,0,0,0],"split_type":[0,0,0,0,0,0,0,0,0,0,0,0,0,0,0,0,0,0,0,0,0,0,0,0,0,0,0,0,0,0,0,0,0,0,0,0,0,0,0,0,0,0,0,0,0,0,0,0,0],"sum_hessian":[4.09E2,3.57E2,5.2E1,2.69E2,8.8E1,3E1,2.2E1,2.56E2,1.3E1,7.1E1,1.7E1,8E0,2.2E1,1.7E1,5E0,1.19E2,1.37E2,8E0,5E0,4.6E1,2.5E1,8E0,9E0,2E0,6E0,5E0,1.7E1,3E0,1.4E1,2E0,3E0,5.4E1,6.5E1,1.21E2,1.6E1,4E0,1E0,3E0,4.3E1,1.3E1,1.2E1,5E0,4E0,2E0,4E0,4E0,1E0,1.6E1,1E0],"tree_param":{"num_deleted":"0","num_feature":"1536","num_nodes":"49","size_leaf_vector":"1"}},{"base_weights":[5.5754823E-3,-1.18658245E-1,1.3160884E-1,-3.8238272E-1,-3.4450132E-2,5.163485E-1,7.0002526E-2,1.8988493E-1,-4.647348E-1,1.4461577E-1,-1.288172E-1,6.3697337E-3,7.575821E-1,-1.8752038E-1,1.4175354E-1,7.0961535E-2,2.613371E-2,-5.672428E-1,-1.7665853E-1,-9.689934E-2,3.34721E-1,8.7139465E-2,-2.2171852E-1,1.4244209E-1,-2.3334933E-2,1.1870551E-1,8.257614E-2,-5.629702E-3,-3.994134E-1,6.9995716E-2,5.006193E-1,8.247972E-3,1.8203497E-3,-2.5257131E-2,-6.161608E-2,8.872465E-3,-3.536136E-2,-3.7493896E-2,8.293162E-3,4.9101498E-2,1.3527314E-2,2.3800483E-2,-4.8566613E-2,-3.2942228E-2,-4.694655E-3,5.167728E-3,2.4623608E-2,2.8755309E-3,1.4930296E-2,9.502363E-3,-4.8232563E-2,3.6231994E-3,-5.2647155E-2,-6.6051944E-3,1.9597476E-2,6.890297E-2,2.3244156E-2],"categories":[],"categories_nodes":[],"categories_segments":[],"categories_sizes":[],"default_left":[0,0,0,0,0,0,0,0,0,0,0,0,0,0,0,0,0,0,0,0,0,0,0,0,0,0,0,0,0,0,0,0,0,0,0,0,0,0,0,0,0,0,0,0,0,0,0,0,0,0,0,0,0,0,0,0,0],"id":9,"left_children":[1,3,5,7,9,11,13,15,17,19,21,23,25,27,29,31,-1,33,35,37,39,41,43,45,-1,47,-1,49,51,53,55,-1,-1,-1,-1,-1,-1,-1,-1,-1,-1,-1,-1,-1,-1,-1,-1,-1,-1,-1,-1,-1,-1,-1,-1,-1,-1],"loss_changes":[6.4352307E0,4.583829E0,4.799142E0,2.4446173E0,2.6885011E0,3.4398465E0,3.2971046E0,4.093647E-2,1.1991177E0,2.5576649E0,2.1058369E0,3.5943013E-1,7.2958183E-1,1.5008649E0,3.5444067E0,9.292867E-4,0E0,3.3695507E-1,6.4186597E-1,1.2810975E0,8.999262E-1,2.88092E0,1.3586571E0,5.322109E-2,0E0,3.9634854E-3,0E0,1.101415E0,1.0154161E0,2.0182257E0,1.0019732E0,0E0,0E0,0E0,0E0,0E0,0E0,0E0,0E0,0E0,0E0,0E0,0E0,0E0,0E0,0E0,0E0,0E0,0E0,0E0,0E0,0E0,0E0,0E0,0E0,0E0,0E0],"parents":[2147483647,0,0,1,1,2,2,3,3,4,4,5,5,6,6,7,7,8,8,9,9,10,10,11,11,12,12,13,13,14,14,15,15,17,17,18,18,19,19,20,20,21,21,22,22,23,23,25,25,27,27,28,28,29,29,30,30],"right_children":[2,4,6,8,10,12,14,16,18,20,22,24,26,28,30,32,-1,34,36,38,40,42,44,46,-1,48,-1,50,52,54,56,-1,-1,-1,-1,-1,-1,-1,-1,-1,-1,-1,-1,-1,-1,-1,-1,-1,-1,-1,-1,-1,-1,-1,-1,-1,-1],"split_conditions":[-3.1661388E-2,7.234126E-2,2.9335815E-2,-3.4977064E-2,-5.997221E-2,-6.734482E-2,2.2830905E-2,-4.419701E-2,5.3171054E-2,-3.2652684E-2,2.2392591E-2,1.0775874E-1,-1.2990414E-2,-2.5072765E-2,9.904994E-3,-2.1056368E-3,2.613371E-2,-9.74529E-3,-4.3048386E-2,-4.823759E-2,3.4474134E-2,6.797667E-3,2.1157037E-2,3.3179767E-2,-2.3334933E-2,4.916217E-3,8.257614E-2,5.0400584E-3,1.3025823E-2,5.175646E-3,-9.861236E-2,8.247972E-3,1.8203497E-3,-2.5257131E-2,-6.161608E-2,8.872465E-3,-3.536136E-2,-3.7493896E-2,8.293162E-3,4.9101498E-2,1.3527314E-2,2.3800483E-2,-4.8566613E-2,-3.2942228E-2,-4.694655E-3,5.167728E-3,2.4623608E-2,2.8755309E-3,1.4930296E-2,9.502363E-3,-4.8232563E-2,3.6231994E-3,-5.2647155E-2,-6.6051944E-3,1.9597476E-2,6.890297E-2,2.3244156E-2],"split_indices":[250,791,402,218,1266,896,1406,32,1294,7,855,4,322,121,1399,0,0,1301,145,272,1017,124,1058,13,0,0,0,14,1013,1473,1244,0,0,0,0,0,0,0,0,0,0,0,0,0,0,0,0,0,0,0,0,0,0,0,0,0,0],"split_type":[0,0,0,0,0,0,0,0,0,0,0,0,0,0,0,0,0,0,0,0,0,0,0,0,0,0,0,0,0,0,0,0,0,0,0,0,0,0,0,0,0,0,0,0,0,0,0,0,0,0,0,0,0,0,0,0,0],"sum_hessian":[4.09E2,2.06E2,2.03E2,4.9E1,1.57E2,2.7E1,1.76E2,6E0,4.3E1,5.4E1,1.03E2,9E0,1.8E1,3.8E1,1.38E2,3E0,3E0,3.1E1,1.2E1,2.4E1,3E1,3.1E1,7.2E1,6E0,3E0,2E0,1.6E1,2.1E1,1.7E1,1.16E2,2.2E1,2E0,1E0,5E0,2.6E1,5E0,7E0,9E0,1.5E1,1.6E1,1.4E1,2.5E1,6E0,4.4E1,2.8E1,4E0,2E0,1E0,1E0,1.8E1,3E0,4E0,1.3E1,5.6E1,6E1,1.2E1,1E1],"tree_param":{"num_deleted":"0","num_feature":"1536","num_nodes":"57","size_leaf_vector":"1"}},{"base_weights":[5.062048E-3,-3.9014664E-2,3.0269223E-1,-9.573369E-2,1.3349265E-1,6.0413998E-2,6.1608064E-1,-1.4396346E-1,1.5526387E-1,5.737018E-2,4.3056628E-1,-2.910287E-1,1.9530836E-1,7.166315E-1,1.1077138E-2,-1.7486091E-1,1.8456821E-1,-8.39952E-2,3.7736976E-1,-1.6594957E-1,1.8720199E-1,6.879359E-2,1.5587704E-1,3.3705074E-2,-3.8862482E-1,3.4929374E-1,-4.4296654E-3,3.854747E-2,8.073678E-2,-2.1535933E-2,4.642945E-3,3.8450055E-2,-1.6339285E-2,1.705593E-2,-3.1033723E-2,6.1371297E-2,1.4835864E-2,-3.8196817E-2,6.192257E-3,3.3309493E-2,-5.8247857E-3,2.3049122E-2,3.5164643E-3,5.478025E-4,4.507959E-3,-1.4978886E-2,-4.542014E-2,4.8554163E-2,1.094143E-2,5.55532E-3,-3.0212915E-2],"categories":[],"categories_nodes":[],"categories_segments":[],"categories_sizes":[],"default_left":[0,0,0,0,0,0,0,0,0,0,0,0,0,0,0,0,0,0,0,0,0,0,0,0,0,0,0,0,0,0,0,0,0,0,0,0,0,0,0,0,0,0,0,0,0,0,0,0,0,0,0],"id":10,"left_children":[1,3,5,7,9,11,13,15,17,19,21,23,25,27,-1,29,31,33,35,37,39,-1,41,43,45,47,49,-1,-1,-1,-1,-1,-1,-1,-1,-1,-1,-1,-1,-1,-1,-1,-1,-1,-1,-1,-1,-1,-1,-1,-1],"loss_changes":[5.390419E0,3.5156112E0,3.9869208E0,3.2908523E0,1.9879426E0,1.5264773E0,1.0892315E0,2.336503E0,2.369895E0,2.1186345E0,1.1653066E0,2.983333E-1,7.089521E-1,2.5969124E-1,0E0,1.8740754E0,1.4541979E0,1.3204912E0,1.1538303E0,1.3527172E0,1.6666344E0,0E0,8.196339E-2,7.1625994E-4,4.160011E-2,3.7175477E-1,2.1320978E-1,0E0,0E0,0E0,0E0,0E0,0E0,0E0,0E0,0E0,0E0,0E0,0E0,0E0,0E0,0E0,0E0,0E0,0E0,0E0,0E0,0E0,0E0,0E0,0E0],"parents":[2147483647,0,0,1,1,2,2,3,3,4,4,5,5,6,6,7,7,8,8,9,9,10,10,11,11,12,12,13,13,15,15,16,16,17,17,18,18,19,19,20,20,22,22,23,23,24,24,25,25,26,26],"right_children":[2,4,6,8,10,12,14,16,18,20,22,24,26,28,-1,30,32,34,36,38,40,-1,42,44,46,48,50,-1,-1,-1,-1,-1,-1,-1,-1,-1,-1,-1,-1,-1,-1,-1,-1,-1,-1,-1,-1,-1,-1,-1,-1],"split_conditions":[-8.97612E-2,-7.038375E-1,-6.3085556E-2,1.1299358E-1,7.2281495E-2,-4.274473E-4,-5.3580004E-1,6.265457E-2,1.679787E-2,-2.3421159E-2,3.7596233E-3,1.5823312E-2,-1.6235157E-3,-2.661812E-2,1.1077138E-2,-4.9402635E-4,3.5469696E-2,3.2410324E-2,-1.0786683E-1,1.188596E-1,6.497126E-2,6.879359E-2,9.057254E-3,-2.5705043E-2,-7.122248E-2,5.899585E-3,-7.682456E-3,3.854747E-2,8.073678E-2,-2.1535933E-2,4.642945E-3,3.8450055E-2,-1.6339285E-2,1.705593E-2,-3.1033723E-2,6.1371297E-2,1.4835864E-2,-3.8196817E-2,6.192257E-3,3.3309493E-2,-5.8247857E-3,2.3049122E-2,3.5164643E-3,5.478025E-4,4.507959E-3,-1.4978886E-2,-4.542014E-2,4.8554163E-2,1.094143E-2,5.55532E-3,-3.0212915E-2],"split_indices":[302,1221,73,791,1330,1309,264,1488,672,1067,349,56,609,916,0,1050,1011,1103,437,8,1022,0,1,0,64,1215,0,0,0,0,0,0,0,0,0,0,0,0,0,0,0,0,0,0,0,0,0,0,0,0,0],"split_type":[0,0,0,0,0,0,0,0,0,0,0,0,0,0,0,0,0,0,0,0,0,0,0,0,0,0,0,0,0,0,0,0,0,0,0,0,0,0,0,0,0,0,0,0,0,0,0,0,0,0,0],"sum_hessian":[4.09E2,3.57E2,5.2E1,2.69E2,8.8E1,3E1,2.2E1,2.26E2,4.3E1,7.1E1,1.7E1,8E0,2.2E1,1.8E1,4E0,2.07E2,1.9E1,2.1E1,2.2E1,2.6E1,4.5E1,8E0,9E0,2E0,6E0,1.2E1,1E1,5E0,1.3E1,1.75E2,3.2E1,1.2E1,7E0,1E1,1.1E1,1E1,1.2E1,1.3E1,1.3E1,2.8E1,1.7E1,5E0,4E0,1E0,1E0,2E0,4E0,7E0,5E0,9E0,1E0],"tree_param":{"num_deleted":"0","num_feature":"1536","num_nodes":"51","size_leaf_vector":"1"}},{"base_weights":[5.2098255E-3,-9.94479E-2,1.113811E-1,-3.2898808E-1,-2.6179187E-2,5.1418614E-2,3.9944515E-1,1.7620257E-1,-4.0188232E-1,2.1915242E-2,-3.2448635E-1,-1.9768949E-1,1.1746656E-1,6.980815E-2,2.1328355E-1,7.20619E-2,2.3629261E-2,-4.9326313E-1,-1.460309E-1,1.7154026E-1,-6.3348E-2,2.3248419E-1,-4.611734E-1,-3.1013513E-1,8.606286E-2,4.2146257E-1,5.455174E-2,6.650014E-2,5.3928846E-1,8.261204E-3,2.0205737E-3,-1.826418E-2,-5.311147E-2,8.645594E-3,-3.0214218E-2,3.641011E-2,1.9544438E-3,-1.19883E-2,2.1978114E-2,3.484637E-2,3.900997E-3,-5.6094327E-4,-5.1776826E-2,-6.0746237E-3,-4.6220656E-2,-1.2798977E-2,1.8233133E-2,1.0572071E-2,5.8281023E-2,1.1490838E-2,-2.5010258E-2,1.2811296E-2,-2.6373062E-2,1.5553439E-2,5.7732504E-2],"categories":[],"categories_nodes":[],"categories_segments":[],"categories_sizes":[],"default_left":[0,0,0,0,0,0,0,0,0,0,0,0,0,0,0,0,0,0,0,0,0,0,0,0,0,0,0,0,0,0,0,0,0,0,0,0,0,0,0,0,0,0,0,0,0,0,0,0,0,0,0,0,0,0,0],"id":11,"left_children":[1,3,5,7,9,11,13,15,17,19,21,23,25,-1,27,29,-1,31,33,35,37,39,41,43,45,47,49,51,53,-1,-1,-1,-1,-1,-1,-1,-1,-1,-1,-1,-1,-1,-1,-1,-1,-1,-1,-1,-1,-1,-1,-1,-1,-1,-1],"loss_changes":[4.5668507E0,3.472737E0,3.503161E0,1.912087E0,2.2739234E0,2.8202455E0,1.7969217E0,2.6777014E-2,9.566846E-1,1.7586462E0,1.7820897E0,1.1753328E0,2.5589993E0,0E0,1.0647359E0,5.1912107E-4,0E0,2.7923632E-1,4.979416E-1,1.456306E0,1.4349377E0,9.860164E-2,4.6118236E-1,9.5797086E-1,2.5000823E-1,1.1101012E0,2.1065729E0,3.7967688E-1,1.2382984E-2,0E0,0E0,0E0,0E0,0E0,0E0,0E0,0E0,0E0,0E0,0E0,0E0,0E0,0E0,0E0,0E0,0E0,0E0,0E0,0E0,0E0,0E0,0E0,0E0,0E0,0E0],"parents":[2147483647,0,0,1,1,2,2,3,3,4,4,5,5,6,6,7,7,8,8,9,9,10,10,11,11,12,12,14,14,15,15,17,17,18,18,19,19,20,20,21,21,22,22,23,23,24,24,25,25,26,26,27,27,28,28],"right_children":[2,4,6,8,10,12,14,16,18,20,22,24,26,-1,28,30,-1,32,34,36,38,40,42,44,46,48,50,52,54,-1,-1,-1,-1,-1,-1,-1,-1,-1,-1,-1,-1,-1,-1,-1,-1,-1,-1,-1,-1,-1,-1,-1,-1,-1,-1],"split_conditions":[-3.1661388E-2,7.234126E-2,-5.3069156E-2,-3.4977064E-2,-5.8062114E-2,2.2830905E-2,4.0095728E-2,-4.419701E-2,5.3171054E-2,7.977337E-3,-1.3786584E-1,3.8936894E-2,9.789184E-3,6.980815E-2,1.8820433E-1,-2.1056368E-3,2.3629261E-2,-8.364362E-3,-4.3048386E-2,1.1125901E-1,1.09206736E-1,9.582883E-3,-1.278284E-4,-7.975601E-3,-8.724202E-2,-3.0376393E-2,-5.504863E-3,-1.1018662E-1,-3.8861588E-2,8.261204E-3,2.0205737E-3,-1.826418E-2,-5.311147E-2,8.645594E-3,-3.0214218E-2,3.641011E-2,1.9544438E-3,-1.19883E-2,2.1978114E-2,3.484637E-2,3.900997E-3,-5.6094327E-4,-5.1776826E-2,-6.0746237E-3,-4.6220656E-2,-1.2798977E-2,1.8233133E-2,1.0572071E-2,5.8281023E-2,1.1490838E-2,-2.5010258E-2,1.2811296E-2,-2.6373062E-2,1.5553439E-2,5.7732504E-2],"split_indices":[250,791,741,218,1039,1406,1000,32,1294,701,437,1348,444,0,471,0,0,772,145,698,1355,1,25,560,372,974,664,38,7,0,0,0,0,0,0,0,0,0,0,0,0,0,0,0,0,0,0,0,0,0,0,0,0,0,0],"split_type":[0,0,0,0,0,0,0,0,0,0,0,0,0,0,0,0,0,0,0,0,0,0,0,0,0,0,0,0,0,0,0,0,0,0,0,0,0,0,0,0,0,0,0,0,0,0,0,0,0,0,0,0,0,0,0],"sum_hessian":[4.09E2,2.06E2,2.03E2,4.9E1,1.57E2,1.69E2,3.4E1,6E0,4.3E1,1.36E2,2.1E1,3.5E1,1.34E2,1.2E1,2.2E1,3E0,3E0,3.1E1,1.2E1,4.9E1,8.7E1,4E0,1.7E1,2.5E1,1E1,2.2E1,1.12E2,1.6E1,6E0,2E0,1E0,4E0,2.7E1,5E0,7E0,2.1E1,2.8E1,7.3E1,1.4E1,2E0,2E0,2E0,1.5E1,1E1,1.5E1,3E0,7E0,8E0,1.4E1,9.4E1,1.8E1,1.4E1,2E0,1E0,5E0],"tree_param":{"num_deleted":"0","num_feature":"1536","num_nodes":"55","size_leaf_vector":"1"}},{"base_weights":[4.9662865E-3,3.5764566E-1,-2.1820804E-2,6.297669E-2,1.5636231E-1,1.4007822E-1,-7.36649E-2,3.5400365E-2,5.3115368E-2,2.3504426E-1,-1.2763117E-1,-1.2034531E-2,-2.0204276E-1,-5.876279E-2,9.255509E-2,9.873112E-2,4.7100613E-1,-2.920195E-1,1.9706133E-1,-1.2709385E-1,8.593213E-2,6.911219E-2,-2.6717302E-1,-2.3084085E-3,-8.289945E-3,1.2641792E-2,4.891022E-3,2.2832034E-2,-1.7566867E-2,1.315759E-2,5.7126958E-2,2.6426017E-3,-3.621454E-2,2.1592183E-2,2.3088695E-3,-1.7626626E-2,2.4654789E-2,3.3962183E-2,2.3708965E-3,1.750755E-2,-3.7201907E-2,-1.1718633E-2,-3.858007E-2],"categories":[],"categories_nodes":[],"categories_segments":[],"categories_sizes":[],"default_left":[0,0,0,0,0,0,0,0,0,0,0,0,0,0,0,0,0,0,0,0,0,0,0,0,0,0,0,0,0,0,0,0,0,0,0,0,0,0,0,0,0,0,0],"id":12,"left_children":[1,3,5,-1,7,9,11,-1,13,15,17,19,21,23,25,27,29,31,33,35,37,39,41,-1,-1,-1,-1,-1,-1,-1,-1,-1,-1,-1,-1,-1,-1,-1,-1,-1,-1,-1,-1],"loss_changes":[3.8811784E0,1.4899585E0,3.2166393E0,0E0,3.485025E-1,2.394366E0,2.292041E0,0E0,6.280056E-2,2.1728613E0,1.3919371E0,2.2315006E0,1.6785426E0,1.5310012E-3,8.596271E-3,1.6402752E0,7.7564573E-1,3.8920176E-1,2.454552E-2,1.7153888E0,1.680983E0,9.5326215E-1,1.3070245E0,0E0,0E0,0E0,0E0,0E0,0E0,0E0,0E0,0E0,0E0,0E0,0E0,0E0,0E0,0E0,0E0,0E0,0E0,0E0,0E0],"parents":[2147483647,0,0,1,1,2,2,4,4,5,5,6,6,8,8,9,9,10,10,11,11,12,12,13,13,14,14,15,15,16,16,17,17,18,18,19,19,20,20,21,21,22,22],"right_children":[2,4,6,-1,8,10,12,-1,14,16,18,20,22,24,26,28,30,32,34,36,38,40,42,-1,-1,-1,-1,-1,-1,-1,-1,-1,-1,-1,-1,-1,-1,-1,-1,-1,-1,-1,-1],"split_conditions":[-1.3122763E-1,1.825285E-2,-9.111446E-2,6.297669E-2,-6.170932E-1,1.1343328E-1,1.6692615E-1,3.5400365E-2,-8.031329E-2,3.5368863E-2,8.800044E-2,1.1570494E-2,8.695338E-3,-9.718569E-2,1.5012375E-3,-4.0622998E-2,6.276474E-2,1.641129E-2,2.4046596E-2,2.2677071E-2,-5.2737482E-2,9.552185E-2,5.4378156E-2,-2.3084085E-3,-8.289945E-3,1.2641792E-2,4.891022E-3,2.2832034E-2,-1.7566867E-2,1.315759E-2,5.7126958E-2,2.6426017E-3,-3.621454E-2,2.1592183E-2,2.3088695E-3,-1.7626626E-2,2.4654789E-2,3.3962183E-2,2.3708965E-3,1.750755E-2,-3.7201907E-2,-1.1718633E-2,-3.858007E-2],"split_indices":[1121,884,1134,0,619,698,669,0,682,595,1331,1035,701,2,23,1055,1393,426,1,1268,1092,1223,1072,0,0,0,0,0,0,0,0,0,0,0,0,0,0,0,0,0,0,0,0],"split_type":[0,0,0,0,0,0,0,0,0,0,0,0,0,0,0,0,0,0,0,0,0,0,0,0,0,0,0,0,0,0,0,0,0,0,0,0,0,0,0,0,0,0,0],"sum_hessian":[4.09E2,2.8E1,3.81E2,1.1E1,1.7E1,9.2E1,2.89E2,5E0,1.2E1,6.8E1,2.4E1,1.96E2,9.3E1,3E0,9E0,4.4E1,2.4E1,1.6E1,8E0,9E1,1.06E2,1.8E1,7.5E1,2E0,1E0,4E0,5E0,3E1,1.4E1,6E0,1.8E1,3E0,1.3E1,7E0,1E0,8E1,1E1,2E1,8.6E1,1.5E1,3E0,3.4E1,4.1E1],"tree_param":{"num_deleted":"0","num_feature":"1536","num_nodes":"43","size_leaf_vector":"1"}},{"base_weights":[4.822255E-3,1.7292853E-1,-4.2998035E-2,6.665721E-2,1.2385618E-1,-9.050701E-2,1.2489269E-1,-2.2199864E-2,2.509314E-1,3.0300814E-1,-1.1337074E-1,2.199118E-2,4.0536043E-1,-1.911861E-1,9.842372E-2,-3.351769E-1,3.007767E-1,4.923744E-2,4.3302637E-2,-1.9351381E-1,-5.4018404E-3,2.1911947E-1,-9.461344E-2,4.5711347E-1,-2.6309717E-2,5.500154E-3,-2.9834775E-2,-2.925234E-2,1.2813983E-2,-9.1467975E-3,-3.8592387E-2,1.6732207E-2,4.8719104E-2,9.050527E-3,-4.980262E-3,-5.3842247E-2,-1.5579345E-2,-2.7477685E-2,4.420048E-3,3.889517E-2,9.775198E-3,-2.5431708E-2,6.147407E-3,5.7778955E-2,2.3404473E-2],"categories":[],"categories_nodes":[],"categories_segments":[],"categories_sizes":[],"default_left":[0,0,0,0,0,0,0,0,0,0,0,0,0,0,0,0,0,0,0,0,0,0,0,0,0,0,0,0,0,0,0,0,0,0,0,0,0,0,0,0,0,0,0,0,0],"id":13,"left_children":[1,3,5,-1,7,9,11,13,15,17,19,21,23,25,27,29,31,-1,33,35,37,39,41,43,-1,-1,-1,-1,-1,-1,-1,-1,-1,-1,-1,-1,-1,-1,-1,-1,-1,-1,-1,-1,-1],"loss_changes":[3.3033807E0,2.1218479E0,2.5637248E0,0E0,1.5646195E0,2.2836585E0,2.040185E0,8.341662E-1,1.4154761E0,6.671914E-1,2.0497062E0,1.2389934E0,7.7756476E-1,4.649015E-1,3.1630212E-1,1.4170289E-2,9.6335244E-1,0E0,3.527109E-2,1.6854882E0,1.3750311E0,3.742215E-1,8.631772E-1,3.4931445E-1,0E0,0E0,0E0,0E0,0E0,0E0,0E0,0E0,0E0,0E0,0E0,0E0,0E0,0E0,0E0,0E0,0E0,0E0,0E0,0E0,0E0],"parents":[2147483647,0,0,1,1,2,2,4,4,5,5,6,6,7,7,8,8,9,9,10,10,11,11,12,12,13,13,14,14,15,15,16,16,18,18,19,19,20,20,21,21,22,22,23,23],"right_children":[2,4,6,-1,8,10,12,14,16,18,20,22,24,26,28,30,32,-1,34,36,38,40,42,44,-1,-1,-1,-1,-1,-1,-1,-1,-1,-1,-1,-1,-1,-1,-1,-1,-1,-1,-1,-1,-1],"split_conditions":[7.7767656E-3,-5.1510416E-2,-1.6722724E-2,6.665721E-2,-6.4796954E-2,2.2809971E-2,-6.0312927E-2,5.8235817E-2,1.03102036E-1,-1.5088927E-2,-7.154092E-2,-9.653201E-2,-9.547145E-3,7.8695705E-3,-2.1123102E-1,8.093554E-3,-2.8883174E-1,4.923744E-2,4.706863E-2,-5.403283E-2,-4.663296E-2,5.4514103E-2,5.4235067E-3,-6.804703E-2,-2.6309717E-2,5.500154E-3,-2.9834775E-2,-2.925234E-2,1.2813983E-2,-9.1467975E-3,-3.8592387E-2,1.6732207E-2,4.8719104E-2,9.050527E-3,-4.980262E-3,-5.3842247E-2,-1.5579345E-2,-2.7477685E-2,4.420048E-3,3.889517E-2,9.775198E-3,-2.5431708E-2,6.147407E-3,5.7778955E-2,2.3404473E-2],"split_indices":[1043,15,1037,0,896,924,765,852,334,15,644,1121,31,1215,20,1,187,0,12,520,450,1014,942,506,0,0,0,0,0,0,0,0,0,0,0,0,0,0,0,0,0,0,0,0,0],"split_type":[0,0,0,0,0,0,0,0,0,0,0,0,0,0,0,0,0,0,0,0,0,0,0,0,0,0,0,0,0,0,0,0,0,0,0,0,0,0,0,0,0,0,0,0,0],"sum_hessian":[4.09E2,9E1,3.19E2,7E0,8.3E1,2.49E2,7E1,3.9E1,4.4E1,1.3E1,2.36E2,5.2E1,1.8E1,1.6E1,2.3E1,3E0,4.1E1,7E0,6E0,1.35E2,1.01E2,1.9E1,3.3E1,1.7E1,1E0,5E0,1.1E1,1E0,2.2E1,1E0,2E0,2.5E1,1.6E1,4E0,2E0,1.2E1,1.23E2,1.5E1,8.6E1,7E0,1.2E1,1.6E1,1.7E1,1E1,7E0],"tree_param":{"num_deleted":"0","num_feature":"1536","num_nodes":"45","size_leaf_vector":"1"}},{"base_weights":[4.556373E-3,-7.982548E-2,9.015681E-2,-2.6791E-1,-1.9799847E-2,-2.3278264E-2,1.8730386E-1,1.16006255E-1,-3.331058E-1,2.0125356E-2,-2.67525E-1,2.2636357E-1,-8.4575884E-2,7.831876E-2,3.8370442E-1,-1.4465491E-2,1.6190775E-1,-4.0403038E-1,-1.16214775E-1,-1.862682E-2,2.6177713E-1,-4.2985517E-1,7.0284754E-2,3.5359022E-1,4.5712844E-2,-3.0411156E-2,-4.4443843E-1,2.4933189E-1,-3.6174405E-2,5.231551E-1,9.73171E-2,2.151835E-3,-4.3216585E-3,2.3849905E-2,9.888968E-3,-1.5877903E-2,-4.435666E-2,-2.7100626E-2,8.3744405E-3,-7.920331E-3,1.6372355E-2,4.608568E-2,7.5095803E-3,-8.733618E-3,-4.480825E-2,1.8496072E-2,-1.8249543E-2,3.9194647E-2,1.2065801E-2,9.841782E-3,2.957384E-4,1.8688703E-3,-3.543645E-2,-4.8278287E-2,-1.9404046E-2,7.944754E-3,4.2567603E-2,8.413935E-3,-2.3221033E-2,5.9925493E-2,1.6961332E-2,1.8100059E-2,-1.2223618E-3],"categories":[],"categories_nodes":[],"categories_segments":[],"categories_sizes":[],"default_left":[0,0,0,0,0,0,0,0,0,0,0,0,0,0,0,0,0,0,0,0,0,0,0,0,0,0,0,0,0,0,0,0,0,0,0,0,0,0,0,0,0,0,0,0,0,0,0,0,0,0,0,0,0,0,0,0,0,0,0,0,0,0,0],"id":14,"left_children":[1,3,5,7,9,11,13,15,17,19,21,23,25,27,29,31,33,35,37,39,41,43,45,47,49,51,53,55,57,59,61,-1,-1,-1,-1,-1,-1,-1,-1,-1,-1,-1,-1,-1,-1,-1,-1,-1,-1,-1,-1,-1,-1,-1,-1,-1,-1,-1,-1,-1,-1,-1,-1],"loss_changes":[2.9686773E0,2.3317032E0,2.2524161E0,1.2901292E0,1.5680792E0,1.4728776E0,2.3244693E0,5.025287E-2,6.1451054E-1,1.287817E0,1.2366202E0,4.2052442E-1,1.4873571E0,1.4187675E0,1.506628E0,4.033674E-3,5.3747147E-3,2.398529E-1,3.9411893E-1,1.3274587E0,6.715163E-1,5.4514408E-2,2.65657E-1,5.0987124E-2,1.998977E-2,1.088235E0,2.334237E-3,8.349662E-1,1.057314E0,5.9787464E-1,1.3054696E-1,0E0,0E0,0E0,0E0,0E0,0E0,0E0,0E0,0E0,0E0,0E0,0E0,0E0,0E0,0E0,0E0,0E0,0E0,0E0,0E0,0E0,0E0,0E0,0E0,0E0,0E0,0E0,0E0,0E0,0E0,0E0,0E0],"parents":[2147483647,0,0,1,1,2,2,3,3,4,4,5,5,6,6,7,7,8,8,9,9,10,10,11,11,12,12,13,13,14,14,15,15,16,16,17,17,18,18,19,19,20,20,21,21,22,22,23,23,24,24,25,25,26,26,27,27,28,28,29,29,30,30],"right_children":[2,4,6,8,10,12,14,16,18,20,22,24,26,28,30,32,34,36,38,40,42,44,46,48,50,52,54,56,58,60,62,-1,-1,-1,-1,-1,-1,-1,-1,-1,-1,-1,-1,-1,-1,-1,-1,-1,-1,-1,-1,-1,-1,-1,-1,-1,-1,-1,-1,-1,-1,-1,-1],"split_conditions":[-3.1661388E-2,7.234126E-2,4.4332375E-3,-3.4227036E-2,-5.8062114E-2,-4.9742267E-2,-4.424111E-3,8.010922E-2,5.3171054E-2,6.537511E-2,3.8386613E-2,1.3407199E-1,3.7753943E-2,-4.6153828E-3,7.950766E-2,-1.4817652E-3,-2.4831495E-3,-9.74529E-3,1.1728347E-1,1.5863009E-2,8.886307E-2,-4.18783E-2,-3.1535793E-2,-7.625921E-2,-1.1950653E-1,5.327101E-2,1.03788555E-1,1.4644253E-2,6.958695E-2,-2.4997597E-3,-3.2953337E-2,2.151835E-3,-4.3216585E-3,2.3849905E-2,9.888968E-3,-1.5877903E-2,-4.435666E-2,-2.7100626E-2,8.3744405E-3,-7.920331E-3,1.6372355E-2,4.608568E-2,7.5095803E-3,-8.733618E-3,-4.480825E-2,1.8496072E-2,-1.8249543E-2,3.9194647E-2,1.2065801E-2,9.841782E-3,2.957384E-4,1.8688703E-3,-3.543645E-2,-4.8278287E-2,-1.9404046E-2,7.944754E-3,4.2567603E-2,8.413935E-3,-2.3221033E-2,5.9925493E-2,1.6961332E-2,1.8100059E-2,-1.2223618E-3],"split_indices":[250,791,1473,218,1039,1247,652,4,1294,1082,1036,1280,336,1432,408,0,1,1301,19,1462,422,7,7,2,38,602,4,1488,792,675,527,0,0,0,0,0,0,0,0,0,0,0,0,0,0,0,0,0,0,0,0,0,0,0,0,0,0,0,0,0,0,0,0],"split_type":[0,0,0,0,0,0,0,0,0,0,0,0,0,0,0,0,0,0,0,0,0,0,0,0,0,0,0,0,0,0,0,0,0,0,0,0,0,0,0,0,0,0,0,0,0,0,0,0,0,0,0,0,0,0,0,0,0,0,0,0,0,0,0],"sum_hessian":[4.09E2,2.06E2,2.03E2,4.9E1,1.57E2,9.4E1,1.09E2,7E0,4.2E1,1.36E2,2.1E1,1.8E1,7.6E1,7.1E1,3.8E1,2E0,5E0,3.1E1,1.1E1,1.18E2,1.8E1,1.4E1,7E0,1E1,8E0,6.7E1,9E0,2.8E1,4.3E1,2.5E1,1.3E1,1E0,1E0,1E0,4E0,5E0,2.6E1,6E0,5E0,8.9E1,2.9E1,8E0,1E1,1E0,1.3E1,5E0,2E0,8E0,2E0,3E0,5E0,5.9E1,8E0,7E0,2E0,1.5E1,1.3E1,2.7E1,1.6E1,2E1,5E0,7E0,6E0],"tree_param":{"num_deleted":"0","num_feature":"1536","num_nodes":"63","size_leaf_vector":"1"}},{"base_weights":[4.225028E-3,1.678539E-1,-3.231185E-2,9.956587E-3,3.480235E-1,-7.576221E-2,9.894117E-2,2.1953861E-1,-1.0684663E-1,-9.8634325E-2,4.2575428E-1,1.9663E-2,-1.5800054E-1,-3.620088E-4,2.2509284E-1,1.0336201E-2,3.231062E-1,-7.003943E-3,-2.7587882E-1,-2.1432335E-2,8.849582E-3,3.158754E-2,4.683807E-1,-5.153736E-2,2.3023531E-1,-2.791346E-1,-5.8695566E-2,-1.2987171E-1,1.7233483E-1,1.3126796E-1,3.8821045E-1,-7.5667943E-3,7.2255256E-3,6.98365E-3,3.4348767E-2,-1.6885873E-2,5.130162E-3,2.241842E-3,-3.5325542E-2,-5.5540325E-3,7.914361E-3,2.027989E-2,5.057515E-2,-1.2110383E-2,1.2168539E-2,3.7465587E-2,-1.7616869E-3,1.196331E-2,-3.415832E-2,-1.091428E-2,1.7250951E-2,-2.5933435E-2,6.4356327E-3,2.816843E-2,2.3881984E-3,6.4918855E-3,2.9260585E-2,1.7899433E-2,4.6130713E-2],"categories":[],"categories_nodes":[],"categories_segments":[],"categories_sizes":[],"default_left":[0,0,0,0,0,0,0,0,0,0,0,0,0,0,0,0,0,0,0,0,0,0,0,0,0,0,0,0,0,0,0,0,0,0,0,0,0,0,0,0,0,0,0,0,0,0,0,0,0,0,0,0,0,0,0,0,0,0,0],"id":15,"left_children":[1,3,5,7,9,11,13,15,17,19,21,23,25,27,29,31,33,35,37,-1,-1,39,41,43,45,47,49,51,53,55,57,-1,-1,-1,-1,-1,-1,-1,-1,-1,-1,-1,-1,-1,-1,-1,-1,-1,-1,-1,-1,-1,-1,-1,-1,-1,-1,-1,-1],"loss_changes":[2.4566038E0,2.1301575E0,1.923701E0,1.027131E0,1.2571611E0,1.9885522E0,1.0523715E0,3.216591E-1,4.537367E-1,1.4886013E-1,4.892621E-1,1.781019E0,1.6195889E0,1.0959455E0,5.1530635E-1,3.7419174E-2,2.7632117E-2,1.7852932E-1,2.3873174E-1,0E0,0E0,2.0969493E-2,1.6540909E-1,1.0872307E0,1.0804491E0,1.559916E0,9.052659E-1,7.207575E-1,3.3417094E-1,2.4861991E-1,1.1623776E-1,0E0,0E0,0E0,0E0,0E0,0E0,0E0,0E0,0E0,0E0,0E0,0E0,0E0,0E0,0E0,0E0,0E0,0E0,0E0,0E0,0E0,0E0,0E0,0E0,0E0,0E0,0E0,0E0],"parents":[2147483647,0,0,1,1,2,2,3,3,4,4,5,5,6,6,7,7,8,8,9,9,10,10,11,11,12,12,13,13,14,14,15,15,16,16,17,17,18,18,21,21,22,22,23,23,24,24,25,25,26,26,27,27,28,28,29,29,30,30],"right_children":[2,4,6,8,10,12,14,16,18,20,22,24,26,28,30,32,34,36,38,-1,-1,40,42,44,46,48,50,52,54,56,58,-1,-1,-1,-1,-1,-1,-1,-1,-1,-1,-1,-1,-1,-1,-1,-1,-1,-1,-1,-1,-1,-1,-1,-1,-1,-1,-1,-1],"split_conditions":[1.1163897E-2,-2.8932214E-2,1.1905824E-2,-8.088252E-2,1.3922519E-2,-5.853368E-2,4.9291894E-2,1.3239506E-4,-2.7116472E-2,-5.688076E-2,-3.5879783E-2,1.9445145E-1,8.536138E-3,-5.521142E-3,1.8019209E-2,7.6608494E-4,-7.889678E-2,-1.13682926E-1,4.6307907E-2,-2.1432335E-2,8.849582E-3,-1.4069124E-2,-7.8580864E-2,1.3406694E-1,1.4458372E-1,9.490246E-2,-4.5257363E-2,2.8006417E-1,8.719962E-3,-1.4912614E-2,1.9228413E-3,-7.5667943E-3,7.2255256E-3,6.98365E-3,3.4348767E-2,-1.6885873E-2,5.130162E-3,2.241842E-3,-3.5325542E-2,-5.5540325E-3,7.914361E-3,2.027989E-2,5.057515E-2,-1.2110383E-2,1.2168539E-2,3.7465587E-2,-1.7616869E-3,1.196331E-2,-3.415832E-2,-1.091428E-2,1.7250951E-2,-2.5933435E-2,6.4356327E-3,2.816843E-2,2.3881984E-3,6.4918855E-3,2.9260585E-2,1.7899433E-2,4.6130713E-2],"split_indices":[444,7,1001,1134,643,771,1082,1473,908,3,1001,1532,942,1282,839,1,3,647,4,0,0,1,1333,736,546,542,1052,17,836,811,976,0,0,0,0,0,0,0,0,0,0,0,0,0,0,0,0,0,0,0,0,0,0,0,0,0,0,0,0],"split_type":[0,0,0,0,0,0,0,0,0,0,0,0,0,0,0,0,0,0,0,0,0,0,0,0,0,0,0,0,0,0,0,0,0,0,0,0,0,0,0,0,0,0,0,0,0,0,0,0,0,0,0,0,0,0,0,0,0,0,0],"sum_hessian":[4.09E2,7.4E1,3.35E2,4E1,3.4E1,2.52E2,8.3E1,1.4E1,2.6E1,5E0,2.9E1,1.17E2,1.35E2,4.7E1,3.6E1,5E0,9E0,1.7E1,9E0,3E0,2E0,3E0,2.6E1,8.8E1,2.9E1,6E1,7.5E1,2.7E1,2E1,2.4E1,1.2E1,2E0,3E0,1E0,8E0,4E0,1.3E1,2E0,7E0,1E0,2E0,4E0,2.2E1,6.3E1,2.5E1,1.8E1,1.1E1,8E0,5.2E1,6.2E1,1.3E1,1.6E1,1.1E1,1.1E1,9E0,1.8E1,6E0,4E0,8E0],"tree_param":{"num_deleted":"0","num_feature":"1536","num_nodes":"59","size_leaf_vector":"1"}},{"base_weights":[4.259913E-3,-6.3746E-2,7.88365E-2,2.3326129E-1,-9.3727626E-2,2.060305E-1,1.5605842E-2,3.686108E-2,4.692103E-1,9.586325E-2,-1.3553846E-1,9.0432875E-2,4.2786074E-1,-1.1396927E-1,9.85972E-2,-2.1410454E-2,7.914019E-2,5.0653946E-2,8.528841E-3,3.0889532E-1,-3.797641E-2,-3.5162964E-1,-9.511643E-2,1.9264251E-1,-1.0047415E-1,7.671678E-3,4.792668E-1,-3.1169802E-2,-2.9831994E-1,-4.037578E-2,1.23094924E-1,1.5615425E-2,1.2824399E-3,3.8172286E-2,1.01461215E-2,-1.6994102E-2,1.21434145E-2,-3.317678E-3,-4.7362927E-2,3.9549987E-3,-1.571399E-2,2.7959926E-2,2.4931582E-3,2.4440938E-3,-3.1273946E-2,5.034576E-2,1.824298E-2,9.686387E-3,-1.2286839E-2,-7.275816E-3,-3.942337E-2,-1.1670432E-2,1.6007576E-2],"categories":[],"categories_nodes":[],"categories_segments":[],"categories_sizes":[],"default_left":[0,0,0,0,0,0,0,0,0,0,0,0,0,0,0,0,0,0,0,0,0,0,0,0,0,0,0,0,0,0,0,0,0,0,0,0,0,0,0,0,0,0,0,0,0,0,0,0,0,0,0,0,0],"id":16,"left_children":[1,3,5,7,9,11,13,15,17,19,21,23,25,27,29,-1,31,-1,-1,33,35,37,39,41,43,-1,45,47,49,-1,51,-1,-1,-1,-1,-1,-1,-1,-1,-1,-1,-1,-1,-1,-1,-1,-1,-1,-1,-1,-1,-1,-1],"loss_changes":[2.0844014E0,1.9363871E0,1.5731267E0,9.095131E-1,1.5666759E0,1.6281054E0,1.4307141E0,1.442715E-1,8.5781574E-2,1.0381678E0,1.372864E0,8.779073E-1,3.6035252E-1,7.844366E-1,1.0465317E0,0E0,5.417715E-2,0E0,0E0,1.7276669E-1,5.044773E-1,9.5556474E-1,1.1505045E0,4.159534E-1,4.3188587E-1,0E0,4.4588566E-2,4.4630024E-1,3.174677E-1,0E0,7.1038365E-1,0E0,0E0,0E0,0E0,0E0,0E0,0E0,0E0,0E0,0E0,0E0,0E0,0E0,0E0,0E0,0E0,0E0,0E0,0E0,0E0,0E0,0E0],"parents":[2147483647,0,0,1,1,2,2,3,3,4,4,5,5,6,6,7,7,8,8,9,9,10,10,11,11,12,12,13,13,14,14,16,16,19,19,20,20,21,21,22,22,23,23,24,24,26,26,27,27,28,28,30,30],"right_children":[2,4,6,8,10,12,14,16,18,20,22,24,26,28,30,-1,32,-1,-1,34,36,38,40,42,44,-1,46,48,50,-1,52,-1,-1,-1,-1,-1,-1,-1,-1,-1,-1,-1,-1,-1,-1,-1,-1,-1,-1,-1,-1,-1,-1],"split_conditions":[2.0653753E-2,-1.26802875E-2,-7.85473E-2,9.064385E-2,7.1833283E-3,-9.361065E-2,2.9527232E-2,-3.7863217E-2,1.1409754E-2,1.7470403E-1,-1.50040025E-2,7.118278E-2,2.9729694E-2,6.2115792E-2,-6.688255E-2,-2.1410454E-2,-1.6036624E-1,5.0653946E-2,8.528841E-3,-8.336235E-3,1.01027675E-2,-3.906315E-2,-6.943156E-2,1.8493045E-2,7.014305E-2,7.671678E-3,3.0349395E-1,-1.1191523E-2,1.5663685E-2,-4.037578E-2,-5.9418637E-2,1.5615425E-2,1.2824399E-3,3.8172286E-2,1.01461215E-2,-1.6994102E-2,1.21434145E-2,-3.317678E-3,-4.7362927E-2,3.9549987E-3,-1.571399E-2,2.7959926E-2,2.4931582E-3,2.4440938E-3,-3.1273946E-2,5.034576E-2,1.824298E-2,9.686387E-3,-1.2286839E-2,-7.275816E-3,-3.942337E-2,-1.1670432E-2,1.6007576E-2],"split_indices":[1058,789,771,240,54,128,1172,7,0,346,915,1022,214,53,1509,0,37,0,0,69,1418,900,1530,1303,1149,0,43,827,297,0,664,0,0,0,0,0,0,0,0,0,0,0,0,0,0,0,0,0,0,0,0,0,0],"split_type":[0,0,0,0,0,0,0,0,0,0,0,0,0,0,0,0,0,0,0,0,0,0,0,0,0,0,0,0,0,0,0,0,0,0,0,0,0,0,0,0,0,0,0,0,0,0,0,0,0,0,0,0,0],"sum_hessian":[4.09E2,2.14E2,1.95E2,1.9E1,1.95E2,6.4E1,1.31E2,1.1E1,8E0,3.5E1,1.6E2,4.3E1,2.1E1,5.1E1,8E1,1E0,1E1,7E0,1E0,1.3E1,2.2E1,2.4E1,1.36E2,2.8E1,1.5E1,3E0,1.8E1,3.6E1,1.5E1,3E0,7.7E1,4E0,6E0,9E0,4E0,1.2E1,1E1,7E0,1.7E1,4.3E1,9.3E1,1.8E1,1E1,1E1,5E0,1.6E1,2E0,1.5E1,2.1E1,5E0,1E1,1E1,6.7E1],"tree_param":{"num_deleted":"0","num_feature":"1536","num_nodes":"53","size_leaf_vector":"1"}},{"base_weights":[3.9027992E-3,-6.287589E-2,7.16444E-2,6.1494794E-2,-1.2416151E-1,1.0955787E-1,-1.1455372E-1,2.4645688E-1,-2.4560636E-2,1.633372E-1,-1.5261286E-1,-1.7521357E-2,1.790331E-1,-2.4406551E-1,7.439971E-2,-2.6169872E-2,3.0849448E-1,1.4964594E-1,-1.1634036E-1,2.5320319E-3,4.2011905E-2,-5.056661E-2,-2.3238786E-1,4.8225503E-2,-2.4168764E-1,5.9647508E-2,2.8504005E-1,8.296115E-3,-3.4556323E-1,1.8958122E-1,-5.008176E-2,5.94639E-3,-1.0308036E-2,2.0738984E-2,4.377461E-2,-8.91165E-4,2.1645425E-2,1.3363483E-2,-1.7916676E-2,6.9441795E-3,-6.488414E-3,-1.7318431E-2,5.7860627E-3,-7.2937175E-3,-3.1746026E-2,-1.7155983E-2,1.1820384E-2,4.1675568E-3,-3.592005E-2,9.181096E-3,-3.5730757E-2,3.805827E-2,1.3383034E-2,-8.612243E-3,6.328802E-3,-4.284528E-2,-1.4982009E-2,5.2977405E-3,2.2628626E-2,-9.086995E-3,1.342392E-3],"categories":[],"categories_nodes":[],"categories_segments":[],"categories_sizes":[],"default_left":[0,0,0,0,0,0,0,0,0,0,0,0,0,0,0,0,0,0,0,0,0,0,0,0,0,0,0,0,0,0,0,0,0,0,0,0,0,0,0,0,0,0,0,0,0,0,0,0,0,0,0,0,0,0,0,0,0,0,0,0,0],"id":17,"left_children":[1,3,5,7,9,11,13,15,17,19,21,23,25,27,29,31,33,35,37,39,-1,41,43,45,47,49,51,53,55,57,59,-1,-1,-1,-1,-1,-1,-1,-1,-1,-1,-1,-1,-1,-1,-1,-1,-1,-1,-1,-1,-1,-1,-1,-1,-1,-1,-1,-1,-1,-1],"loss_changes":[1.8592199E0,1.5854173E0,1.4526712E0,1.1043255E0,1.1619093E0,1.5040426E0,8.7466776E-1,3.8016164E-1,7.8486425E-1,5.3573024E-1,1.0221229E0,9.106875E-1,1.3751252E0,5.407636E-1,2.2456402E-1,3.9060228E-2,1.4443874E-1,1.8200934E-1,5.2650416E-1,4.510287E-2,0E0,7.678411E-1,9.399493E-1,7.585293E-1,4.8115325E-1,7.4357265E-1,7.869911E-1,4.179631E-2,1.7918491E-1,2.8124332E-2,2.1942087E-2,0E0,0E0,0E0,0E0,0E0,0E0,0E0,0E0,0E0,0E0,0E0,0E0,0E0,0E0,0E0,0E0,0E0,0E0,0E0,0E0,0E0,0E0,0E0,0E0,0E0,0E0,0E0,0E0,0E0,0E0],"parents":[2147483647,0,0,1,1,2,2,3,3,4,4,5,5,6,6,7,7,8,8,9,9,10,10,11,11,12,12,13,13,14,14,15,15,16,16,17,17,18,18,19,19,21,21,22,22,23,23,24,24,25,25,26,26,27,27,28,28,29,29,30,30],"right_children":[2,4,6,8,10,12,14,16,18,20,22,24,26,28,30,32,34,36,38,40,-1,42,44,46,48,50,52,54,56,58,60,-1,-1,-1,-1,-1,-1,-1,-1,-1,-1,-1,-1,-1,-1,-1,-1,-1,-1,-1,-1,-1,-1,-1,-1,-1,-1,-1,-1,-1,-1],"split_conditions":[-3.1661388E-2,-9.5753044E-2,3.0514544E-3,3.4617342E-2,4.5142133E-2,-7.121699E-2,-7.783881E-2,-6.0256906E-2,-9.023809E-3,-3.0113649E-2,-1.737489E-3,-5.844164E-2,-9.7476E-2,-3.185605E-2,2.079595E-3,-2.4862232E-2,-1.6378066E-2,-1.0260157E-1,-1.6026059E-1,-5.080357E-2,4.2011905E-2,8.7596625E-2,-1.4261656E-1,-3.6021057E-1,9.855552E-3,6.372869E-2,7.949153E-2,-8.303851E-2,4.102098E-2,6.1653137E-2,6.8336404E-3,5.94639E-3,-1.0308036E-2,2.0738984E-2,4.377461E-2,-8.91165E-4,2.1645425E-2,1.3363483E-2,-1.7916676E-2,6.9441795E-3,-6.488414E-3,-1.7318431E-2,5.7860627E-3,-7.2937175E-3,-3.1746026E-2,-1.7155983E-2,1.1820384E-2,4.1675568E-3,-3.592005E-2,9.181096E-3,-3.5730757E-2,3.805827E-2,1.3383034E-2,-8.612243E-3,6.328802E-3,-4.284528E-2,-1.4982009E-2,5.2977405E-3,2.2628626E-2,-9.086995E-3,1.342392E-3],"split_indices":[250,867,866,1017,1374,896,223,47,451,7,878,1427,741,1196,179,0,607,1320,1520,10,0,1374,101,309,444,814,408,14,570,4,1,0,0,0,0,0,0,0,0,0,0,0,0,0,0,0,0,0,0,0,0,0,0,0,0,0,0,0,0,0,0],"split_type":[0,0,0,0,0,0,0,0,0,0,0,0,0,0,0,0,0,0,0,0,0,0,0,0,0,0,0,0,0,0,0,0,0,0,0,0,0,0,0,0,0,0,0,0,0,0,0,0,0,0,0,0,0,0,0,0,0,0,0,0,0],"sum_hessian":[4.09E2,2.06E2,2.03E2,6.8E1,1.38E2,1.69E2,3.4E1,2.1E1,4.7E1,1.2E1,1.26E2,6E1,1.09E2,2E1,1.4E1,4E0,1.7E1,1.6E1,3.1E1,8E0,4E0,5.6E1,7E1,4.7E1,1.3E1,5.2E1,5.7E1,6E0,1.4E1,7E0,7E0,2E0,2E0,1.1E1,6E0,5E0,1.1E1,6E0,2.5E1,4E0,4E0,2.6E1,3E1,2.5E1,4.5E1,1.1E1,3.6E1,4E0,9E0,4.9E1,3E0,3.4E1,2.3E1,2E0,4E0,9E0,5E0,2E0,5E0,4E0,3E0],"tree_param":{"num_deleted":"0","num_feature":"1536","num_nodes":"61","size_leaf_vector":"1"}},{"base_weights":[3.5518338E-3,-2.1643892E-2,1.5996824E-1,-7.856866E-2,4.7083117E-2,3.0151063E-1,1.2909692E-2,2.124276E-2,-1.3635609E-1,-6.632569E-2,1.0819949E-1,1.00072816E-1,4.0226355E-1,-1.7936285E-1,1.0840048E-1,-1.7598234E-1,6.768189E-2,-2.577557E-1,-7.2512925E-2,3.345296E-2,-2.2658505E-1,-7.7980235E-2,1.5023896E-1,1.4207564E-2,2.1254301E-2,2.1242512E-2,4.548898E-2,-2.6962413E-2,-3.5176754E-2,2.239892E-1,-6.5347715E-3,8.169646E-3,-2.8722351E-2,2.6371703E-2,1.2019365E-3,-3.7445247E-2,-1.1066659E-2,3.520152E-3,-1.8108595E-2,8.6464165E-3,-2.4601376E-2,1.4708835E-2,-2.933276E-2,-2.7324025E-2,5.322457E-4,-1.7392447E-2,1.8116388E-2,4.298083E-3,-7.556995E-4,1.5503566E-3,-7.413149E-3,1.0114861E-2,2.6218537E-2,3.1391382E-3,-1.9289816E-2],"categories":[],"categories_nodes":[],"categories_segments":[],"categories_sizes":[],"default_left":[0,0,0,0,0,0,0,0,0,0,0,0,0,0,0,0,0,0,0,0,0,0,0,0,0,0,0,0,0,0,0,0,0,0,0,0,0,0,0,0,0,0,0,0,0,0,0,0,0,0,0,0,0,0,0],"id":18,"left_children":[1,3,5,7,9,11,13,15,17,19,21,23,25,27,29,31,33,35,37,39,41,43,45,-1,47,-1,-1,-1,49,51,53,-1,-1,-1,-1,-1,-1,-1,-1,-1,-1,-1,-1,-1,-1,-1,-1,-1,-1,-1,-1,-1,-1,-1,-1],"loss_changes":[1.6192825E0,1.3886425E0,1.1825637E0,1.1218586E0,1.1230891E0,5.4831266E-1,5.5189043E-1,6.713561E-1,9.346249E-1,9.1903627E-1,8.3353984E-1,3.3396892E-2,9.3189E-2,1.2065971E-1,2.6716807E-1,4.24768E-1,6.4062715E-1,6.794834E-1,9.653548E-1,5.546066E-1,5.9182334E-1,3.26768E-1,8.936353E-1,0E0,3.4546533E-3,0E0,0E0,0E0,1.1020495E-2,2.0400703E-2,8.380385E-2,0E0,0E0,0E0,0E0,0E0,0E0,0E0,0E0,0E0,0E0,0E0,0E0,0E0,0E0,0E0,0E0,0E0,0E0,0E0,0E0,0E0,0E0,0E0,0E0],"parents":[2147483647,0,0,1,1,2,2,3,3,4,4,5,5,6,6,7,7,8,8,9,9,10,10,11,11,12,12,13,13,14,14,15,15,16,16,17,17,18,18,19,19,20,20,21,21,22,22,24,24,28,28,29,29,30,30],"right_children":[2,4,6,8,10,12,14,16,18,20,22,24,26,28,30,32,34,36,38,40,42,44,46,-1,48,-1,-1,-1,50,52,54,-1,-1,-1,-1,-1,-1,-1,-1,-1,-1,-1,-1,-1,-1,-1,-1,-1,-1,-1,-1,-1,-1,-1,-1],"split_conditions":[-9.077478E-2,3.8862113E-2,-2.6501767E-2,-3.9886024E-2,-2.2277929E-2,-1.0805141E-1,-4.274473E-4,1.2060387E-1,2.0643935E-2,-3.234787E-3,-8.030398E-2,-1.9276984E-1,6.8990536E-2,1.6989866E-1,-4.931201E-2,2.4523862E-2,5.2328836E-3,-7.144004E-3,-5.084069E-3,-6.96576E-2,-4.0998984E-2,5.3805592E-3,-7.5016124E-3,1.4207564E-2,-8.500185E-3,2.1242512E-2,4.548898E-2,-2.6962413E-2,1.3023305E-1,-1.7165159E-1,-1.0701965E-3,8.169646E-3,-2.8722351E-2,2.6371703E-2,1.2019365E-3,-3.7445247E-2,-1.1066659E-2,3.520152E-3,-1.8108595E-2,8.6464165E-3,-2.4601376E-2,1.4708835E-2,-2.933276E-2,-2.7324025E-2,5.322457E-4,-1.7392447E-2,1.8116388E-2,4.298083E-3,-7.556995E-4,1.5503566E-3,-7.413149E-3,1.0114861E-2,2.6218537E-2,3.1391382E-3,-1.9289816E-2],"split_indices":[302,1406,521,934,571,690,1309,1099,1203,843,1333,87,433,376,1429,201,1178,1188,1301,493,1021,1516,1314,0,1,0,0,0,8,72,0,0,0,0,0,0,0,0,0,0,0,0,0,0,0,0,0,0,0,0,0,0,0,0,0],"split_type":[0,0,0,0,0,0,0,0,0,0,0,0,0,0,0,0,0,0,0,0,0,0,0,0,0,0,0,0,0,0,0,0,0,0,0,0,0,0,0,0,0,0,0,0,0,0,0,0,0,0,0,0,0,0,0],"sum_hessian":[4.09E2,3.53E2,5.6E1,1.93E2,1.6E2,2.8E1,2.8E1,7.1E1,1.22E2,5.6E1,1.04E2,1E1,1.8E1,9E0,1.9E1,1.3E1,5.8E1,4.1E1,8.1E1,3.5E1,2.1E1,1.9E1,8.5E1,6E0,4E0,5E0,1.3E1,5E0,4E0,9E0,1E1,4E0,9E0,1.2E1,4.6E1,2.2E1,1.9E1,4.1E1,4E1,3E1,5E0,3E0,1.8E1,5E0,1.4E1,7E0,7.8E1,2E0,2E0,2E0,2E0,3E0,6E0,9E0,1E0],"tree_param":{"num_deleted":"0","num_feature":"1536","num_nodes":"55","size_leaf_vector":"1"}},{"base_weights":[3.0969183E-3,2.160415E-1,-1.3077139E-2,3.5134163E-1,6.6338584E-2,-2.1491705E-2,3.8299024E-1,4.023139E-2,1.689343E-2,-2.2445679E-2,1.4683053E-1,8.4965326E-2,-5.1575124E-2,1.1285305E-2,4.054594E-2,-8.567921E-2,1.2912035E-2,1.5795065E-2,3.4494877E-3,5.2297425E-2,3.8468975E-1,4.388202E-2,-8.580699E-2,-2.5923252E-3,-1.0259557E-2,-3.5860538E-4,2.2057593E-3,-2.8770551E-2,7.518239E-3,4.1840956E-2,7.4325562E-3,2.104581E-2,-2.9603573E-3,-6.6302866E-3,-3.42742E-2],"categories":[],"categories_nodes":[],"categories_segments":[],"categories_sizes":[],"default_left":[0,0,0,0,0,0,0,0,0,0,0,0,0,0,0,0,0,0,0,0,0,0,0,0,0,0,0,0,0,0,0,0,0,0,0],"id":19,"left_children":[1,3,5,7,9,11,13,-1,-1,15,17,19,21,-1,-1,23,25,-1,-1,27,29,31,33,-1,-1,-1,-1,-1,-1,-1,-1,-1,-1,-1,-1],"loss_changes":[1.4149381E0,5.640825E-1,1.2813357E0,7.1501255E-2,1.1049198E-1,1.2053539E0,2.8008223E-3,0E0,0E0,1.899264E-2,4.5449883E-3,7.925653E-1,9.611944E-1,0E0,0E0,3.7294813E-4,9.84405E-4,0E0,0E0,6.12983E-1,5.262482E-2,9.610238E-1,1.0597144E0,0E0,0E0,0E0,0E0,0E0,0E0,0E0,0E0,0E0,0E0,0E0,0E0],"parents":[2147483647,0,0,1,1,2,2,3,3,4,4,5,5,6,6,9,9,10,10,11,11,12,12,15,15,16,16,19,19,20,20,21,21,22,22],"right_children":[2,4,6,8,10,12,14,-1,-1,16,18,20,22,-1,-1,24,26,-1,-1,28,30,32,34,-1,-1,-1,-1,-1,-1,-1,-1,-1,-1,-1,-1],"split_conditions":[-1.0353687E-1,8.305024E-2,8.984571E-2,-3.4180823E-1,-1.1089066E-1,7.7767656E-3,-3.2854818E-2,4.023139E-2,1.689343E-2,-2.6389068E-1,-8.411607E-2,4.971104E-2,-8.902538E-2,1.1285305E-2,4.054594E-2,-2.2432443E-2,-1.0919797E-1,1.5795065E-2,3.4494877E-3,-4.376142E-2,-7.625921E-2,3.465152E-2,2.1214066E-2,-2.5923252E-3,-1.0259557E-2,-3.5860538E-4,2.2057593E-3,-2.8770551E-2,7.518239E-3,4.1840956E-2,7.4325562E-3,2.104581E-2,-2.9603573E-3,-6.6302866E-3,-3.42742E-2],"split_indices":[853,1341,782,446,853,1043,7,0,0,9,2,1101,1134,0,0,0,2,0,0,1482,2,263,254,0,0,0,0,0,0,0,0,0,0,0,0],"split_type":[0,0,0,0,0,0,0,0,0,0,0,0,0,0,0,0,0,0,0,0,0,0,0,0,0,0,0,0,0,0,0,0,0,0,0],"sum_hessian":[4.09E2,2.8E1,3.81E2,1.4E1,1.4E1,3.74E2,7E0,1E1,4E0,7E0,7E0,8.2E1,2.92E2,1E0,6E0,2E0,5E0,6E0,1E0,7.5E1,7E0,7.7E1,2.15E2,1E0,1E0,2E0,3E0,4E0,7.1E1,6E0,1E0,2.3E1,5.4E1,2.01E2,1.4E1],"tree_param":{"num_deleted":"0","num_feature":"1536","num_nodes":"35","size_leaf_vector":"1"}},{"base_weights":[3.085703E-3,-3.825367E-2,7.57557E-2,7.401048E-2,-7.798549E-2,2.6894072E-1,2.8829087E-2,-2.6468916E-2,9.892567E-2,6.382927E-2,-1.1293927E-1,-6.301008E-2,3.5827613E-1,-8.0984496E-2,8.2045116E-2,4.634712E-2,2.7109772E-1,-2.2699697E-1,1.2358547E-1,-2.2641788E-1,-5.8856376E-2,-2.457161E-2,5.9215546E-2,1.0773807E-2,4.0535057E-1,-1.4722034E-1,1.0702097E-1,-9.935343E-2,1.24139614E-1,-5.24516E-3,1.0182678E-2,1.6559783E-2,4.0174793E-2,-2.7399031E-2,2.7481557E-3,2.220287E-2,3.936264E-3,4.9253125E-3,-2.6512876E-2,-9.640789E-3,9.061117E-3,1.1122704E-3,6.845808E-3,1.4335044E-2,4.2774174E-2,-2.8656011E-2,-5.1467847E-3,1.521143E-2,-9.920954E-4,7.324192E-3,-2.4173226E-2,1.5401934E-2,-1.5397509E-2],"categories":[],"categories_nodes":[],"categories_segments":[],"categories_sizes":[],"default_left":[0,0,0,0,0,0,0,0,0,0,0,0,0,0,0,0,0,0,0,0,0,0,0,0,0,0,0,0,0,0,0,0,0,0,0,0,0,0,0,0,0,0,0,0,0,0,0,0,0,0,0,0,0],"id":20,"left_children":[1,3,5,7,9,11,13,-1,15,17,19,21,23,25,27,29,31,33,35,37,39,-1,41,-1,43,45,47,49,51,-1,-1,-1,-1,-1,-1,-1,-1,-1,-1,-1,-1,-1,-1,-1,-1,-1,-1,-1,-1,-1,-1,-1,-1],"loss_changes":[1.2345922E0,1.174412E0,1.3430088E0,6.084595E-1,9.6885955E-1,8.8256884E-1,7.137493E-1,0E0,5.7585156E-1,7.0582163E-1,9.440851E-1,1.7086972E-1,2.2758913E-1,5.138638E-1,6.3847595E-1,2.848882E-1,1.4022517E-1,9.124127E-2,2.648688E-1,5.466316E-1,6.092979E-1,0E0,1.4610589E-3,0E0,5.014634E-2,3.8551527E-1,5.9515446E-2,4.108877E-1,5.804845E-1,0E0,0E0,0E0,0E0,0E0,0E0,0E0,0E0,0E0,0E0,0E0,0E0,0E0,0E0,0E0,0E0,0E0,0E0,0E0,0E0,0E0,0E0,0E0,0E0],"parents":[2147483647,0,0,1,1,2,2,3,3,4,4,5,5,6,6,8,8,9,9,10,10,11,11,12,12,13,13,14,14,15,15,16,16,17,17,18,18,19,19,20,20,22,22,24,24,25,25,26,26,27,27,28,28],"right_children":[2,4,6,8,10,12,14,-1,16,18,20,22,24,26,28,30,32,34,36,38,40,-1,42,-1,44,46,48,50,52,-1,-1,-1,-1,-1,-1,-1,-1,-1,-1,-1,-1,-1,-1,-1,-1,-1,-1,-1,-1,-1,-1,-1,-1],"split_conditions":[7.4591435E-2,1.2347913E-2,-3.69375E-2,-4.376142E-2,-6.606287E-3,-2.5650396E-3,1.2467251E-3,-2.6468916E-2,5.938791E-2,1.524426E-2,-2.7949493E-2,-9.817784E-2,-5.9047665E-2,-7.26023E-3,3.4085244E-3,1.0997023E-2,-7.0702545E-2,2.1483293E-3,-5.6183886E-2,-5.357309E-2,-6.2596165E-2,-2.457161E-2,-9.470998E-2,1.0773807E-2,9.985773E-3,3.198895E-1,-6.866017E-2,4.3819238E-2,1.1717698E-2,-5.24516E-3,1.0182678E-2,1.6559783E-2,4.0174793E-2,-2.7399031E-2,2.7481557E-3,2.220287E-2,3.936264E-3,4.9253125E-3,-2.6512876E-2,-9.640789E-3,9.061117E-3,1.1122704E-3,6.845808E-3,1.4335044E-2,4.2774174E-2,-2.8656011E-2,-5.1467847E-3,1.521143E-2,-9.920954E-4,7.324192E-3,-2.4173226E-2,1.5401934E-2,-1.5397509E-2],"split_indices":[1249,1043,1463,1482,1009,1253,1318,0,1455,694,1398,5,51,554,1035,70,771,0,1177,1092,186,0,5,0,469,1097,86,1455,900,0,0,0,0,0,0,0,0,0,0,0,0,0,0,0,0,0,0,0,0,0,0,0,0],"split_type":[0,0,0,0,0,0,0,0,0,0,0,0,0,0,0,0,0,0,0,0,0,0,0,0,0,0,0,0,0,0,0,0,0,0,0,0,0,0,0,0,0,0,0,0,0,0,0,0,0,0,0,0,0],"sum_hessian":[4.09E2,2.61E2,1.48E2,6.8E1,1.93E2,2.8E1,1.2E2,4E0,6.4E1,3.8E1,1.55E2,6E0,2.2E1,3.9E1,8.1E1,5E1,1.4E1,6E0,3.2E1,4.9E1,1.06E2,2E0,4E0,4E0,1.8E1,2.9E1,1E1,1.5E1,6.6E1,1.8E1,3.2E1,9E0,5E0,5E0,1E0,1.4E1,1.8E1,6E0,4.3E1,8.5E1,2.1E1,1E0,3E0,2E0,1.6E1,1.1E1,1.8E1,7E0,3E0,7E0,8E0,6E1,6E0],"tree_param":{"num_deleted":"0","num_feature":"1536","num_nodes":"53","size_leaf_vector":"1"}},{"base_weights":[2.848748E-3,1.8616979E-1,-1.1593457E-2,3.0594066E-2,8.932584E-2,1.2597792E-1,-3.180188E-2,4.06554E-3,1.5712753E-1,2.4186617E-1,-4.0057182E-2,-1.13638915E-1,2.809478E-3,-5.5923103E-3,4.338038E-2,8.596778E-3,1.9023938E-2,1.3437043E-1,4.0555283E-1,-2.3467779E-1,5.3436246E-2,-2.039785E-1,-2.8063178E-2,-3.98663E-2,8.758526E-2,4.695077E-3,1.2764216E-3,1.861725E-2,1.8970798E-3,4.9853835E-2,2.4497516E-2,-2.82892E-3,-2.6436104E-2,9.870599E-3,-9.5732035E-3,-5.515269E-3,-3.176892E-2,5.151387E-3,-1.949285E-2,-7.534078E-3,8.59402E-3,2.314E-2,2.8018178E-3],"categories":[],"categories_nodes":[],"categories_segments":[],"categories_sizes":[],"default_left":[0,0,0,0,0,0,0,0,0,0,0,0,0,0,0,0,0,0,0,0,0,0,0,0,0,0,0,0,0,0,0,0,0,0,0,0,0,0,0,0,0,0,0],"id":21,"left_children":[1,3,5,-1,7,9,11,13,15,17,19,21,23,-1,25,-1,-1,27,29,31,33,35,37,39,41,-1,-1,-1,-1,-1,-1,-1,-1,-1,-1,-1,-1,-1,-1,-1,-1,-1,-1],"loss_changes":[1.087658E0,3.2064426E-1,1.0632246E0,0E0,1.0341546E-1,9.52523E-1,9.4353867E-1,2.365196E-2,7.2078556E-3,4.5577848E-1,3.94651E-1,7.5963235E-1,8.5369176E-1,0E0,5.658064E-5,0E0,0E0,1.1004907E-1,4.2115927E-2,3.5405397E-2,1.1074146E-1,7.947868E-1,7.005312E-1,7.0715326E-1,6.702799E-1,0E0,0E0,0E0,0E0,0E0,0E0,0E0,0E0,0E0,0E0,0E0,0E0,0E0,0E0,0E0,0E0,0E0,0E0],"parents":[2147483647,0,0,1,1,2,2,4,4,5,5,6,6,7,7,8,8,9,9,10,10,11,11,12,12,14,14,17,17,18,18,19,19,20,20,21,21,22,22,23,23,24,24],"right_children":[2,4,6,-1,8,10,12,14,16,18,20,22,24,-1,26,-1,-1,28,30,32,34,36,38,40,42,-1,-1,-1,-1,-1,-1,-1,-1,-1,-1,-1,-1,-1,-1,-1,-1,-1,-1],"split_conditions":[-1.3065861E-1,1.7848903E-2,6.248634E-3,3.0594066E-2,4.488617E-2,-3.2960495E-3,-5.1617283E-2,2.263079E-2,-1.6982189E-1,1.5127749E-2,-4.2178918E-2,3.4673553E-2,6.536663E-2,-5.5923103E-3,9.191001E-3,8.596778E-3,1.9023938E-2,1.6191777E-2,-5.7590593E-2,-2.2432443E-2,3.0824048E-2,-4.192885E-2,-2.144846E-2,1.0594726E-1,3.5525177E-2,4.695077E-3,1.2764216E-3,1.861725E-2,1.8970798E-3,4.9853835E-2,2.4497516E-2,-2.82892E-3,-2.6436104E-2,9.870599E-3,-9.5732035E-3,-5.515269E-3,-3.176892E-2,5.151387E-3,-1.949285E-2,-7.534078E-3,8.59402E-3,2.314E-2,2.8018178E-3],"split_indices":[1121,62,1487,0,1130,261,1456,18,37,1101,46,1287,469,0,1,0,0,824,106,0,798,1234,939,791,403,0,0,0,0,0,0,0,0,0,0,0,0,0,0,0,0,0,0],"split_type":[0,0,0,0,0,0,0,0,0,0,0,0,0,0,0,0,0,0,0,0,0,0,0,0,0,0,0,0,0,0,0,0,0,0,0,0,0,0,0,0,0,0,0],"sum_hessian":[4.09E2,2.9E1,3.8E2,1.2E1,1.7E1,4.8E1,3.32E2,8E0,9E0,2.8E1,2E1,9.8E1,2.34E2,3E0,5E0,4E0,5E0,1.8E1,1E1,6E0,1.4E1,4.7E1,5.1E1,1.56E2,7.8E1,4E0,1E0,1.2E1,6E0,5E0,5E0,1E0,5E0,1.1E1,3E0,2.1E1,2.6E1,3.5E1,1.6E1,1.22E2,3.4E1,2.2E1,5.6E1],"tree_param":{"num_deleted":"0","num_feature":"1536","num_nodes":"43","size_leaf_vector":"1"}},{"base_weights":[2.8074586E-3,-4.4707786E-2,5.1007695E-2,-3.0073144E-2,-3.6332846E-1,7.9010025E-2,-8.646099E-2,5.988779E-2,-7.51657E-2,-4.466718E-2,-1.4748133E-2,1.5070772E-1,1.6584719E-2,-1.9554798E-1,5.5301562E-2,-3.4639865E-2,1.5265404E-1,-1.095595E-1,7.77979E-2,1.0836246E-1,2.554949E-1,-8.805979E-2,1.18649885E-1,-5.5366565E-2,-3.0520856E-1,1.7274404E-1,-3.2438327E-2,9.503864E-3,-1.3016674E-2,9.340303E-3,3.0686205E-2,-1.4024596E-2,7.7570914E-3,-5.468534E-3,1.8579796E-2,7.053934E-3,2.1208612E-2,8.038668E-3,3.022687E-2,-2.4890441E-2,-3.6466725E-3,1.8730521E-2,-1.5410535E-2,3.530421E-3,-1.2169778E-2,-3.230502E-2,-6.339598E-3,4.31391E-3,1.87155E-2,2.5807105E-3,-9.584518E-3],"categories":[],"categories_nodes":[],"categories_segments":[],"categories_sizes":[],"default_left":[0,0,0,0,0,0,0,0,0,0,0,0,0,0,0,0,0,0,0,0,0,0,0,0,0,0,0,0,0,0,0,0,0,0,0,0,0,0,0,0,0,0,0,0,0,0,0,0,0,0,0],"id":22,"left_children":[1,3,5,7,9,11,13,15,17,-1,-1,19,21,23,25,27,29,31,33,35,37,39,41,43,45,47,49,-1,-1,-1,-1,-1,-1,-1,-1,-1,-1,-1,-1,-1,-1,-1,-1,-1,-1,-1,-1,-1,-1,-1,-1],"loss_changes":[9.412813E-1,9.542937E-1,7.9211783E-1,8.1175864E-1,9.602904E-2,7.5837827E-1,5.520699E-1,5.9280926E-1,7.0823634E-1,0E0,0E0,3.2285595E-1,9.930598E-1,2.9054916E-1,1.7047375E-1,4.3355548E-1,2.819956E-1,6.367973E-1,3.6786538E-1,2.1258241E-1,1.5589213E-1,3.7265283E-1,9.0899146E-1,6.443947E-2,2.6977539E-2,5.0004423E-3,3.9405078E-2,0E0,0E0,0E0,0E0,0E0,0E0,0E0,0E0,0E0,0E0,0E0,0E0,0E0,0E0,0E0,0E0,0E0,0E0,0E0,0E0,0E0,0E0,0E0,0E0],"parents":[2147483647,0,0,1,1,2,2,3,3,4,4,5,5,6,6,7,7,8,8,11,11,12,12,13,13,14,14,15,15,16,16,17,17,18,18,19,19,20,20,21,21,22,22,23,23,24,24,25,25,26,26],"right_children":[2,4,6,8,10,12,14,16,18,-1,-1,20,22,24,26,28,30,32,34,36,38,40,42,44,46,48,50,-1,-1,-1,-1,-1,-1,-1,-1,-1,-1,-1,-1,-1,-1,-1,-1,-1,-1,-1,-1,-1,-1,-1,-1],"split_conditions":[-3.1661388E-2,4.39619E-2,3.0514544E-3,-9.5753044E-2,-2.1089645E-1,7.440925E-2,-1.1886067E-2,4.7932267E-2,-2.8603721E-2,-4.466718E-2,-1.4748133E-2,3.578902E-2,7.744067E-2,-8.064801E-2,-6.0045537E-2,-1.2178787E-2,9.195593E-3,-4.997694E-3,-7.6338374E-3,5.488832E-2,-3.2256898E-2,5.5354387E-2,2.250822E-2,-6.2006343E-2,2.439112E-2,6.1653137E-2,3.814978E-1,9.503864E-3,-1.3016674E-2,9.340303E-3,3.0686205E-2,-1.4024596E-2,7.7570914E-3,-5.468534E-3,1.8579796E-2,7.053934E-3,2.1208612E-2,8.038668E-3,3.022687E-2,-2.4890441E-2,-3.6466725E-3,1.8730521E-2,-1.5410535E-2,3.530421E-3,-1.2169778E-2,-3.230502E-2,-6.339598E-3,4.31391E-3,1.87155E-2,2.5807105E-3,-9.584518E-3],"split_indices":[250,597,866,867,9,831,1038,1294,693,0,0,595,1374,184,32,670,1062,1315,1286,1443,1272,1093,1182,664,28,4,105,0,0,0,0,0,0,0,0,0,0,0,0,0,0,0,0,0,0,0,0,0,0,0,0],"split_type":[0,0,0,0,0,0,0,0,0,0,0,0,0,0,0,0,0,0,0,0,0,0,0,0,0,0,0,0,0,0,0,0,0,0,0,0,0,0,0,0,0,0,0,0,0,0,0,0,0,0,0],"sum_hessian":[4.09E2,2.06E2,2.03E2,1.98E2,8E0,1.69E2,3.4E1,6.6E1,1.32E2,5E0,3E0,7.8E1,9.1E1,1.9E1,1.5E1,3.3E1,3.3E1,1.08E2,2.4E1,5.7E1,2.1E1,4.5E1,4.6E1,9E0,1E1,6E0,9E0,1.4E1,1.9E1,2.5E1,8E0,9.3E1,1.5E1,1.1E1,1.3E1,4.3E1,1.4E1,5E0,1.6E1,1E1,3.5E1,3.7E1,9E0,4E0,5E0,9E0,1E0,1E0,5E0,5E0,4E0],"tree_param":{"num_deleted":"0","num_feature":"1536","num_nodes":"51","size_leaf_vector":"1"}},{"base_weights":[2.512048E-3,-3.086969E-2,6.119328E-2,5.9085425E-2,-6.270491E-2,5.213899E-3,1.5957898E-1,-2.2050472E-2,7.968335E-2,-1.8886654E-1,-3.5672612E-2,-3.4096945E-2,2.1976559E-1,2.6199788E-1,5.511864E-2,5.3870555E-2,3.2453075E-1,-6.725788E-4,-2.788431E-1,-1.020507E-1,2.638885E-2,-1.5754111E-1,1.6695544E-2,3.0135272E-2,8.3472766E-2,7.187024E-2,3.2494903E-1,1.5967701E-1,-6.0845237E-2,9.720146E-3,-4.4748834E-3,3.5222944E-2,9.3018655E-3,1.02225505E-2,-1.2060825E-2,-5.444487E-3,-3.3815127E-2,6.8227784E-3,-1.5804254E-2,-2.9013285E-3,1.4442347E-2,-2.2544146E-3,-2.1180196E-2,7.3709115E-3,-1.0721246E-2,1.1721078E-2,-5.9477687E-3,2.2007849E-3,1.1623067E-2,1.5434961E-2,3.5795208E-2,2.1871446E-2,6.096074E-3,-2.1670258E-2,1.3615434E-4],"categories":[],"categories_nodes":[],"categories_segments":[],"categories_sizes":[],"default_left":[0,0,0,0,0,0,0,0,0,0,0,0,0,0,0,0,0,0,0,0,0,0,0,0,0,0,0,0,0,0,0,0,0,0,0,0,0,0,0,0,0,0,0,0,0,0,0,0,0,0,0,0,0,0,0],"id":23,"left_children":[1,3,5,7,9,11,13,-1,15,17,19,21,23,25,27,29,31,33,35,37,39,41,43,-1,45,47,49,51,53,-1,-1,-1,-1,-1,-1,-1,-1,-1,-1,-1,-1,-1,-1,-1,-1,-1,-1,-1,-1,-1,-1,-1,-1,-1,-1],"loss_changes":[8.0503047E-1,7.5400513E-1,8.1979597E-1,4.1494E-1,6.548878E-1,8.171773E-1,5.632895E-1,0E0,3.9333016E-1,5.7553613E-1,6.659359E-1,5.167732E-1,1.4164138E-1,2.9980242E-1,3.492154E-1,2.607457E-1,5.711615E-3,1.6042306E-1,2.8768826E-1,7.54451E-1,5.5349725E-1,1.7102635E-1,4.2470437E-1,0E0,4.0731482E-2,1.5137348E-2,5.735588E-2,7.408634E-2,1.360304E-1,0E0,0E0,0E0,0E0,0E0,0E0,0E0,0E0,0E0,0E0,0E0,0E0,0E0,0E0,0E0,0E0,0E0,0E0,0E0,0E0,0E0,0E0,0E0,0E0,0E0,0E0],"parents":[2147483647,0,0,1,1,2,2,3,3,4,4,5,5,6,6,8,8,9,9,10,10,11,11,12,12,13,13,14,14,15,15,16,16,17,17,18,18,19,19,20,20,21,21,22,22,24,24,25,25,26,26,27,27,28,28],"right_children":[2,4,6,8,10,12,14,-1,16,18,20,22,24,26,28,30,32,34,36,38,40,42,44,-1,46,48,50,52,54,-1,-1,-1,-1,-1,-1,-1,-1,-1,-1,-1,-1,-1,-1,-1,-1,-1,-1,-1,-1,-1,-1,-1,-1,-1,-1],"split_conditions":[7.4591435E-2,1.2347913E-2,-4.817939E-2,-4.376142E-2,-7.4302346E-2,6.6549994E-2,-5.1666956E-2,-2.2050472E-2,-4.8274803E-3,-4.0356836E-1,2.0629602E-2,-7.678232E-2,4.2530563E-2,-1.5949814E-1,2.2875328E-1,-1.7177416E-2,1.0104186E-1,-1.5088083E-2,4.4975784E-2,9.414706E-3,-2.8848413E-1,-2.238245E-2,4.6237234E-2,3.0135272E-2,-2.1388685E-2,-1.0671874E-2,3.8723525E-2,1.682038E-2,1.8738738E-1,9.720146E-3,-4.4748834E-3,3.5222944E-2,9.3018655E-3,1.02225505E-2,-1.2060825E-2,-5.444487E-3,-3.3815127E-2,6.8227784E-3,-1.5804254E-2,-2.9013285E-3,1.4442347E-2,-2.2544146E-3,-2.1180196E-2,7.3709115E-3,-1.0721246E-2,1.1721078E-2,-5.9477687E-3,2.2007849E-3,1.1623067E-2,1.5434961E-2,3.5795208E-2,2.1871446E-2,6.096074E-3,-2.1670258E-2,1.3615434E-4],"split_indices":[1249,1043,1269,1482,733,1076,1055,0,1478,446,1326,76,403,37,730,1247,4,157,1072,980,1098,913,501,0,10,0,852,429,289,0,0,0,0,0,0,0,0,0,0,0,0,0,0,0,0,0,0,0,0,0,0,0,0,0,0],"split_type":[0,0,0,0,0,0,0,0,0,0,0,0,0,0,0,0,0,0,0,0,0,0,0,0,0,0,0,0,0,0,0,0,0,0,0,0,0,0,0,0,0,0,0,0,0,0,0,0,0,0,0,0,0,0,0],"sum_hessian":[4.09E2,2.61E2,1.48E2,6.8E1,1.93E2,9.5E1,5.3E1,4E0,6.4E1,3.3E1,1.6E2,8.1E1,1.4E1,2.6E1,2.7E1,5.9E1,5E0,1.1E1,2.2E1,7.7E1,8.3E1,2.3E1,5.8E1,8E0,6E0,7E0,1.9E1,1.4E1,1.3E1,4.1E1,1.8E1,4E0,1E0,6E0,5E0,5E0,1.7E1,1.9E1,5.8E1,5.7E1,2.6E1,7E0,1.6E1,4E1,1.8E1,5E0,1E0,4E0,3E0,4E0,1.5E1,8E0,6E0,3E0,1E1],"tree_param":{"num_deleted":"0","num_feature":"1536","num_nodes":"55","size_leaf_vector":"1"}},{"base_weights":[2.4310665E-3,2.944064E-2,-6.157055E-2,-2.1102395E-2,7.51347E-2,-1.7392352E-1,-1.43719595E-2,4.5693338E-2,-8.856035E-2,-1.569919E-2,1.2828468E-1,-2.5873098E-1,-2.2173898E-2,-7.565899E-2,6.6647075E-2,1.5440007E-1,-2.6155073E-2,-1.878933E-1,-1.614045E-2,7.89368E-2,-1.1653421E-1,-5.748219E-2,1.5807325E-1,-3.1464338E-1,-4.7871906E-2,5.728536E-2,-1.3766713E-1,8.615469E-3,-1.7496446E-1,-2.0400846E-2,1.5476874E-1,-6.7637595E-3,2.3163347E-2,-1.3652121E-2,3.1832762E-3,-2.2859955E-2,5.32166E-3,-1.43314125E-2,4.1425005E-3,-1.1085044E-2,1.1239831E-2,-1.6807867E-2,6.2110457E-3,2.9450497E-3,-1.7830087E-2,7.0129083E-3,2.2394264E-2,-1.5474315E-2,-3.492761E-2,-7.4624824E-3,4.294634E-3,7.737882E-3,-8.6944894E-4,-1.7904194E-2,-7.2219255E-3,8.507493E-3,-8.615121E-3,-2.6475051E-2,-5.2947807E-3,-8.936642E-3,5.7501364E-3,7.258302E-3,2.587012E-2],"categories":[],"categories_nodes":[],"categories_segments":[],"categories_sizes":[],"default_left":[0,0,0,0,0,0,0,0,0,0,0,0,0,0,0,0,0,0,0,0,0,0,0,0,0,0,0,0,0,0,0,0,0,0,0,0,0,0,0,0,0,0,0,0,0,0,0,0,0,0,0,0,0,0,0,0,0,0,0,0,0,0,0],"id":24,"left_children":[1,3,5,7,9,11,13,15,17,19,21,23,25,27,29,31,33,35,37,39,41,43,45,47,49,51,53,55,57,59,61,-1,-1,-1,-1,-1,-1,-1,-1,-1,-1,-1,-1,-1,-1,-1,-1,-1,-1,-1,-1,-1,-1,-1,-1,-1,-1,-1,-1,-1,-1,-1,-1],"loss_changes":[7.105618E-1,6.690359E-1,6.444544E-1,6.258613E-1,7.3584235E-1,4.575647E-1,4.3703365E-1,5.507667E-1,4.9333137E-1,5.531283E-1,5.4032457E-1,2.5609922E-1,1.3636442E-1,4.1995323E-1,2.9464808E-1,4.958313E-1,2.7954125E-1,2.9679096E-1,3.0609E-1,2.0297642E-1,2.6826754E-1,1.5229434E-1,4.650998E-1,4.5632005E-2,1.7782778E-2,1.2604635E-2,3.317088E-3,2.1021198E-1,2.379561E-1,1.1259009E-1,1.4351621E-1,0E0,0E0,0E0,0E0,0E0,0E0,0E0,0E0,0E0,0E0,0E0,0E0,0E0,0E0,0E0,0E0,0E0,0E0,0E0,0E0,0E0,0E0,0E0,0E0,0E0,0E0,0E0,0E0,0E0,0E0,0E0,0E0],"parents":[2147483647,0,0,1,1,2,2,3,3,4,4,5,5,6,6,7,7,8,8,9,9,10,10,11,11,12,12,13,13,14,14,15,15,16,16,17,17,18,18,19,19,20,20,21,21,22,22,23,23,24,24,25,25,26,26,27,27,28,28,29,29,30,30],"right_children":[2,4,6,8,10,12,14,16,18,20,22,24,26,28,30,32,34,36,38,40,42,44,46,48,50,52,54,56,58,60,62,-1,-1,-1,-1,-1,-1,-1,-1,-1,-1,-1,-1,-1,-1,-1,-1,-1,-1,-1,-1,-1,-1,-1,-1,-1,-1,-1,-1,-1,-1,-1,-1],"split_conditions":[1.6692615E-1,-4.1165065E-2,-1.1556629E-2,2.819607E-2,-7.127954E-2,-1.364628E-1,-7.151065E-2,1.4853414E-2,1.5303126E-2,4.3818384E-2,9.061736E-3,3.8585167E-3,5.8363732E-2,6.452132E-3,1.6750611E-2,9.7177394E-2,1.9627403E-2,2.1757131E-2,-6.484997E-2,-8.280202E-2,8.496555E-3,1.17192134E-1,-2.3262197E-1,5.04319E-2,8.413046E-3,8.741025E-2,-5.456258E-2,-6.939315E-2,-8.476584E-2,-8.2294874E-2,8.6297445E-2,-6.7637595E-3,2.3163347E-2,-1.3652121E-2,3.1832762E-3,-2.2859955E-2,5.32166E-3,-1.43314125E-2,4.1425005E-3,-1.1085044E-2,1.1239831E-2,-1.6807867E-2,6.2110457E-3,2.9450497E-3,-1.7830087E-2,7.0129083E-3,2.2394264E-2,-1.5474315E-2,-3.492761E-2,-7.4624824E-3,4.294634E-3,7.737882E-3,-8.6944894E-4,-1.7904194E-2,-7.2219255E-3,8.507493E-3,-8.615121E-3,-2.6475051E-2,-5.2947807E-3,-8.936642E-3,5.7501364E-3,7.258302E-3,2.587012E-2],"split_indices":[669,582,1111,232,896,302,644,1346,1326,501,947,157,373,995,1141,1280,1362,1213,267,1325,1007,474,543,1064,1,8,10,1121,969,536,211,0,0,0,0,0,0,0,0,0,0,0,0,0,0,0,0,0,0,0,0,0,0,0,0,0,0,0,0,0,0,0,0],"split_type":[0,0,0,0,0,0,0,0,0,0,0,0,0,0,0,0,0,0,0,0,0,0,0,0,0,0,0,0,0,0,0,0,0,0,0,0,0,0,0,0,0,0,0,0,0,0,0,0,0,0,0,0,0,0,0,0,0,0,0,0,0,0,0],"sum_hessian":[4.09E2,2.88E2,1.21E2,1.37E2,1.51E2,3.5E1,8.6E1,6.9E1,6.8E1,5.6E1,9.5E1,2.2E1,1.3E1,4.9E1,3.7E1,2.7E1,4.2E1,2.8E1,4E1,2.9E1,2.7E1,1.3E1,8.2E1,1.7E1,5E0,8E0,5E0,2.7E1,2.2E1,1.9E1,1.8E1,7E0,2E1,1.4E1,2.8E1,2.4E1,4E0,1.2E1,2.8E1,4E0,2.5E1,2.1E1,6E0,8E0,5E0,3.6E1,4.6E1,4E0,1.3E1,4E0,1E0,6E0,2E0,2E0,3E0,1.5E1,1.2E1,1.2E1,1E1,1E1,9E0,1.1E1,7E0],"tree_param":{"num_deleted":"0","num_feature":"1536","num_nodes":"63","size_leaf_vector":"1"}},{"base_weights":[1.9648415E-3,1.3768674E-1,-8.727079E-3,2.2423004E-1,6.7534E-2,5.521761E-2,-3.2617442E-2,2.5918199E-2,1.4025576E-2,-1.8347604E-2,1.12003766E-1,1.3640343E-1,4.4076E-3,1.1615285E-1,-4.7777165E-2,-4.728425E-3,1.5175939E-2,1.4316897E-2,6.92902E-2,4.7931533E-2,2.532812E-1,1.2575491E-1,-5.231909E-2,2.651637E-1,-1.0799345E-2,-3.9907113E-2,-3.1865224E-1,2.042079E-3,-2.7930737E-5,7.4029053E-3,2.042854E-3,1.38877425E-2,-6.22125E-4,2.9360393E-2,4.8831403E-3,1.8509775E-2,4.196801E-3,5.9024887E-3,-1.2873451E-2,1.0863914E-2,3.298461E-2,7.1088457E-3,-1.4547913E-2,-6.459433E-3,4.351683E-3,-4.2629384E-2,-3.303218E-3],"categories":[],"categories_nodes":[],"categories_segments":[],"categories_sizes":[],"default_left":[0,0,0,0,0,0,0,0,0,0,0,0,0,0,0,0,0,0,0,0,0,0,0,0,0,0,0,0,0,0,0,0,0,0,0,0,0,0,0,0,0,0,0,0,0,0,0],"id":25,"left_children":[1,3,5,7,9,11,13,-1,-1,15,17,19,21,23,25,-1,27,-1,29,31,33,35,37,39,41,43,45,-1,-1,-1,-1,-1,-1,-1,-1,-1,-1,-1,-1,-1,-1,-1,-1,-1,-1,-1,-1],"loss_changes":[5.9616405E-1,1.6699433E-1,5.8384013E-1,1.8040538E-3,7.0799425E-2,4.2840418E-1,6.325275E-1,0E0,0E0,7.507994E-3,6.0539246E-3,4.0147585E-1,4.540154E-1,4.947122E-1,5.266291E-1,0E0,3.2994547E-4,0E0,1.0853261E-4,1.1906333E-1,1.2581027E-1,9.6647024E-2,3.904764E-1,8.565837E-2,1.7577137E-1,5.115086E-1,2.0113069E-1,0E0,0E0,0E0,0E0,0E0,0E0,0E0,0E0,0E0,0E0,0E0,0E0,0E0,0E0,0E0,0E0,0E0,0E0,0E0,0E0],"parents":[2147483647,0,0,1,1,2,2,3,3,4,4,5,5,6,6,9,9,10,10,11,11,12,12,13,13,14,14,16,16,18,18,19,19,20,20,21,21,22,22,23,23,24,24,25,25,26,26],"right_children":[2,4,6,8,10,12,14,-1,-1,16,18,20,22,24,26,-1,28,-1,30,32,34,36,38,40,42,44,46,-1,-1,-1,-1,-1,-1,-1,-1,-1,-1,-1,-1,-1,-1,-1,-1,-1,-1,-1,-1],"split_conditions":[-1.3065861E-1,1.7848903E-2,-8.924931E-2,2.0157011E-1,8.074236E-2,3.7836716E-2,-7.639609E-2,2.5918199E-2,1.4025576E-2,8.50036E-2,-1.108931E-3,-2.0708451E-2,3.8842317E-2,-4.905773E-2,4.4243187E-2,-4.728425E-3,-1.7127493E-2,1.4316897E-2,-3.1850003E-2,-4.417338E-2,-1.7331794E-2,-1.9150298E-2,4.7486864E-2,2.4510203E-2,3.921528E-2,1.0594726E-1,-3.3797067E-2,2.042079E-3,-2.7930737E-5,7.4029053E-3,2.042854E-3,1.38877425E-2,-6.22125E-4,2.9360393E-2,4.8831403E-3,1.8509775E-2,4.196801E-3,5.9024887E-3,-1.2873451E-2,1.0863914E-2,3.298461E-2,7.1088457E-3,-1.4547913E-2,-6.459433E-3,4.351683E-3,-4.2629384E-2,-3.303218E-3],"split_indices":[1121,62,1134,384,838,403,1258,0,0,8,1111,929,1004,1325,1484,0,0,0,7,799,1018,55,1419,567,1390,791,10,0,0,0,0,0,0,0,0,0,0,0,0,0,0,0,0,0,0,0,0],"split_type":[0,0,0,0,0,0,0,0,0,0,0,0,0,0,0,0,0,0,0,0,0,0,0,0,0,0,0,0,0,0,0,0,0,0,0,0,0,0,0,0,0,0,0,0,0,0,0],"sum_hessian":[4.09E2,2.9E1,3.8E2,1.2E1,1.7E1,1.03E2,2.77E2,7E0,5E0,6E0,1.1E1,3.9E1,6.4E1,2.5E1,2.52E2,3E0,3E0,5E0,6E0,2.3E1,1.6E1,2E1,4.4E1,1.1E1,1.4E1,2.46E2,6E0,2E0,1E0,5E0,1E0,8E0,1.5E1,1.3E1,3E0,1.1E1,9E0,1.8E1,2.6E1,4E0,7E0,9E0,5E0,1.9E2,5.6E1,4E0,2E0],"tree_param":{"num_deleted":"0","num_feature":"1536","num_nodes":"47","size_leaf_vector":"1"}},{"base_weights":[2.0430265E-3,2.553201E-2,-5.3615656E-2,-1.4904504E-2,6.8081714E-2,-1.5297997E-1,-1.18831135E-2,-4.156309E-2,1.128097E-1,8.258028E-2,-2.2125946E-1,-2.2794652E-1,-1.8893514E-2,4.5846093E-2,-7.7770665E-2,-1.6874835E-1,-2.7095948E-3,-8.070402E-2,1.5166238E-1,3.5606142E-2,1.3731425E-1,-1.8436194E-3,-2.9870152E-2,-2.767907E-1,-4.342282E-2,5.4816008E-2,-1.2630887E-1,1.03167735E-1,-3.6696516E-2,-1.17643274E-1,1.744268E-1,-1.9888123E-2,6.93025E-3,-5.2245124E-3,9.344142E-3,-9.96182E-3,-2.5236607E-4,1.8653503E-2,2.7579507E-3,7.0606926E-3,-7.720779E-3,2.7557204E-3,1.8892338E-2,-3.0687938E-2,-1.3718434E-2,-6.5649464E-3,3.38552E-3,7.2109937E-3,-3.8084984E-4,-1.6279943E-2,-6.736374E-3,5.9344997E-3,1.8908853E-2,-1.2320352E-2,1.9361367E-3,6.62507E-3,-1.5663043E-2,2.0224323E-2,1.7672301E-3],"categories":[],"categories_nodes":[],"categories_segments":[],"categories_sizes":[],"default_left":[0,0,0,0,0,0,0,0,0,0,0,0,0,0,0,0,0,0,0,0,0,0,0,0,0,0,0,0,0,0,0,0,0,0,0,0,0,0,0,0,0,0,0,0,0,0,0,0,0,0,0,0,0,0,0,0,0,0,0],"id":26,"left_children":[1,3,5,7,9,11,13,15,17,19,21,23,25,27,29,31,33,35,37,39,41,-1,-1,43,45,47,49,51,53,55,57,-1,-1,-1,-1,-1,-1,-1,-1,-1,-1,-1,-1,-1,-1,-1,-1,-1,-1,-1,-1,-1,-1,-1,-1,-1,-1,-1,-1],"loss_changes":[5.373889E-1,4.98257E-1,5.0408256E-1,5.1198614E-1,6.097712E-1,3.5756522E-1,3.344818E-1,6.123002E-1,2.0772147E-1,3.4220666E-1,1.0444248E-1,1.9527793E-1,1.1776924E-1,2.2616538E-1,4.328068E-1,2.218045E-1,4.6211946E-1,7.1421824E-3,9.005159E-2,2.97646E-1,3.4599078E-1,0E0,0E0,3.351116E-2,1.2528361E-2,9.399261E-3,1.9388646E-3,9.420651E-2,9.937337E-2,2.6847896E-1,2.2588E-2,0E0,0E0,0E0,0E0,0E0,0E0,0E0,0E0,0E0,0E0,0E0,0E0,0E0,0E0,0E0,0E0,0E0,0E0,0E0,0E0,0E0,0E0,0E0,0E0,0E0,0E0,0E0,0E0],"parents":[2147483647,0,0,1,1,2,2,3,3,4,4,5,5,6,6,7,7,8,8,9,9,10,10,11,11,12,12,13,13,14,14,15,15,16,16,17,17,18,18,19,19,20,20,23,23,24,24,25,25,26,26,27,27,28,28,29,29,30,30],"right_children":[2,4,6,8,10,12,14,16,18,20,22,24,26,28,30,32,34,36,38,40,42,-1,-1,44,46,48,50,52,54,56,58,-1,-1,-1,-1,-1,-1,-1,-1,-1,-1,-1,-1,-1,-1,-1,-1,-1,-1,-1,-1,-1,-1,-1,-1,-1,-1,-1,-1],"split_conditions":[1.6692615E-1,-3.7319314E-2,-1.1556629E-2,2.16725E-1,-4.8576044E-3,-1.364628E-1,-8.213838E-2,4.15245E-2,4.083525E-2,3.14264E-2,-2.0074204E-3,3.8585167E-3,5.8363732E-2,5.0117508E-2,-3.3679418E-3,3.8253315E-2,3.559178E-2,-1.4696622E-2,4.0200002E-2,5.4050353E-3,-7.094091E-2,-1.8436194E-3,-2.9870152E-2,5.9840377E-2,8.413046E-3,8.741025E-2,-5.456258E-2,7.882449E-2,1.4723883E-2,-1.3729511E-1,-7.5123355E-2,-1.9888123E-2,6.93025E-3,-5.2245124E-3,9.344142E-3,-9.96182E-3,-2.5236607E-4,1.8653503E-2,2.7579507E-3,7.0606926E-3,-7.720779E-3,2.7557204E-3,1.8892338E-2,-3.0687938E-2,-1.3718434E-2,-6.5649464E-3,3.38552E-3,7.2109937E-3,-3.8084984E-4,-1.6279943E-2,-6.736374E-3,5.9344997E-3,1.8908853E-2,-1.2320352E-2,1.9361367E-3,6.62507E-3,-1.5663043E-2,2.0224323E-2,1.7672301E-3],"split_indices":[669,582,1111,660,1479,302,1121,1370,792,1139,1,157,373,752,142,487,1412,0,1490,1301,896,0,0,337,1,8,10,1171,150,809,5,0,0,0,0,0,0,0,0,0,0,0,0,0,0,0,0,0,0,0,0,0,0,0,0,0,0,0,0],"split_type":[0,0,0,0,0,0,0,0,0,0,0,0,0,0,0,0,0,0,0,0,0,0,0,0,0,0,0,0,0,0,0,0,0,0,0,0,0,0,0,0,0,0,0,0,0,0,0,0,0,0,0,0,0,0,0,0,0,0,0],"sum_hessian":[4.09E2,2.88E2,1.21E2,1.48E2,1.4E2,3.5E1,8.6E1,1.23E2,2.5E1,1.34E2,6E0,2.2E1,1.3E1,4.6E1,4E1,2.8E1,9.5E1,4E0,2.1E1,7.3E1,6.1E1,2E0,4E0,1.7E1,5E0,8E0,5E0,2.7E1,1.9E1,3.5E1,5E0,2.5E1,3E0,6.3E1,3.2E1,3E0,1E0,1.6E1,5E0,5.6E1,1.7E1,2E1,4.1E1,1.3E1,4E0,4E0,1E0,6E0,2E0,2E0,3E0,1.9E1,8E0,7E0,1.2E1,6E0,2.9E1,4E0,1E0],"tree_param":{"num_deleted":"0","num_feature":"1536","num_nodes":"59","size_leaf_vector":"1"}},{"base_weights":[1.7296422E-3,-2.41161E-2,4.716491E-2,4.318035E-2,-4.7927126E-2,3.516443E-3,1.2388876E-1,-1.7894726E-2,5.960278E-2,-7.5090975E-2,2.7695138E-2,-2.5511416E-2,1.6196765E-1,2.0108446E-1,4.502545E-2,2.4431644E-2,1.7521112E-1,-6.553319E-2,-3.908407E-2,1.23645775E-1,-5.8964185E-2,3.5257224E-2,-9.019992E-2,2.8561067E-2,2.0788265E-2,5.5297732E-2,2.4934493E-1,1.273494E-1,-4.6394892E-2,7.3453016E-3,-3.8440158E-3,2.9753083E-2,1.1983695E-2,5.721765E-3,-8.296395E-3,1.5334645E-2,4.03587E-4,-1.9513985E-2,1.5810591E-3,-8.485023E-3,7.919573E-3,3.1110474E-3,-1.4976086E-2,5.702412E-3,-4.2645573E-3,1.2121917E-3,9.544307E-3,2.8298069E-2,1.4645274E-2,1.7424209E-2,4.8866067E-3,-1.7684853E-2,5.260511E-4],"categories":[],"categories_nodes":[],"categories_segments":[],"categories_sizes":[],"default_left":[0,0,0,0,0,0,0,0,0,0,0,0,0,0,0,0,0,0,0,0,0,0,0,0,0,0,0,0,0,0,0,0,0,0,0,0,0,0,0,0,0,0,0,0,0,0,0,0,0,0,0,0,0],"id":27,"left_children":[1,3,5,7,9,11,13,-1,15,17,19,21,23,25,27,29,31,33,-1,35,37,39,41,43,-1,45,47,49,51,-1,-1,-1,-1,-1,-1,-1,-1,-1,-1,-1,-1,-1,-1,-1,-1,-1,-1,-1,-1,-1,-1,-1,-1],"loss_changes":[4.8260382E-1,4.2189768E-1,4.985473E-1,2.623691E-1,4.005929E-1,4.4568396E-1,3.196931E-1,0E0,2.6001424E-1,4.0594202E-1,4.3967155E-1,3.255248E-1,8.594316E-2,1.7617667E-1,2.1663871E-1,1.6000871E-1,6.594512E-2,3.0429643E-1,0E0,8.8193536E-2,2.8819534E-1,2.3364548E-1,2.9367357E-1,1.2565618E-2,0E0,1.2709511E-2,2.7773857E-2,4.6689898E-2,9.527121E-2,0E0,0E0,0E0,0E0,0E0,0E0,0E0,0E0,0E0,0E0,0E0,0E0,0E0,0E0,0E0,0E0,0E0,0E0,0E0,0E0,0E0,0E0,0E0,0E0],"parents":[2147483647,0,0,1,1,2,2,3,3,4,4,5,5,6,6,8,8,9,9,10,10,11,11,12,12,13,13,14,14,15,15,16,16,17,17,19,19,20,20,21,21,22,22,23,23,25,25,26,26,27,27,28,28],"right_children":[2,4,6,8,10,12,14,-1,16,18,20,22,24,26,28,30,32,34,-1,36,38,40,42,44,-1,46,48,50,52,-1,-1,-1,-1,-1,-1,-1,-1,-1,-1,-1,-1,-1,-1,-1,-1,-1,-1,-1,-1,-1,-1,-1,-1],"split_conditions":[7.4591435E-2,1.2347913E-2,-4.817939E-2,-4.376142E-2,1.342539E-1,6.6549994E-2,-5.1666956E-2,-1.7894726E-2,5.938791E-2,4.4243187E-2,3.9820664E-2,4.3641392E-2,-1.5384634E-1,-1.5949814E-1,2.2875328E-1,1.2459825E-1,-1.7802012E-1,-3.7802894E-2,-3.908407E-2,-3.1019816E-2,8.559431E-3,-2.027854E-2,-3.297357E-2,-6.8854995E-2,2.0788265E-2,-1.0671874E-2,5.427272E-2,1.682038E-2,1.8738738E-1,7.3453016E-3,-3.8440158E-3,2.9753083E-2,1.1983695E-2,5.721765E-3,-8.296395E-3,1.5334645E-2,4.03587E-4,-1.9513985E-2,1.5810591E-3,-8.485023E-3,7.919573E-3,3.1110474E-3,-1.4976086E-2,5.702412E-3,-4.2645573E-3,1.2121917E-3,9.544307E-3,2.8298069E-2,1.4645274E-2,1.7424209E-2,4.8866067E-3,-1.7684853E-2,5.260511E-4],"split_indices":[1249,1043,1269,1482,1327,1076,1055,0,1455,1484,1138,501,846,37,730,151,72,900,0,221,123,1468,977,3,0,0,1142,429,289,0,0,0,0,0,0,0,0,0,0,0,0,0,0,0,0,0,0,0,0,0,0,0,0],"split_type":[0,0,0,0,0,0,0,0,0,0,0,0,0,0,0,0,0,0,0,0,0,0,0,0,0,0,0,0,0,0,0,0,0,0,0,0,0,0,0,0,0,0,0,0,0,0,0,0,0,0,0,0,0],"sum_hessian":[4.09E2,2.61E2,1.48E2,6.8E1,1.93E2,9.5E1,5.3E1,4E0,6.4E1,1.42E2,5.1E1,8.1E1,1.4E1,2.6E1,2.7E1,5E1,1.4E1,1.39E2,3E0,2.4E1,2.7E1,4.2E1,3.9E1,4E0,1E1,7E0,1.9E1,1.4E1,1.3E1,2.8E1,2.2E1,3E0,1.1E1,1.7E1,1.22E2,1.9E1,5E0,9E0,1.8E1,1.1E1,3.1E1,1.3E1,2.6E1,3E0,1E0,4E0,3E0,1.3E1,6E0,8E0,6E0,3E0,1E1],"tree_param":{"num_deleted":"0","num_feature":"1536","num_nodes":"53","size_leaf_vector":"1"}},{"base_weights":[1.683892E-3,1.966288E-1,-3.6813023E-3,3.014687E-2,5.901742E-2,-2.1307182E-2,5.726681E-2,-6.1204913E-3,9.530286E-3,3.0066108E-2,-5.160307E-2,1.02258876E-1,-1.9845387E-2,5.2794326E-2,-1.0539788E-1,-7.930725E-2,2.0862319E-2,2.1451874E-1,6.4215764E-2,8.944075E-2,-8.352149E-2,-9.156323E-3,7.166507E-3,-2.0187004E-2,2.7851528E-4,-5.023382E-3,-2.070874E-2,-1.0282054E-2,5.4119863E-3,2.3050558E-2,3.3448936E-4,1.1899391E-2,-2.1518997E-3,1.2435825E-2,-6.840364E-3,8.932209E-4,-1.48215E-2],"categories":[],"categories_nodes":[],"categories_segments":[],"categories_sizes":[],"default_left":[0,0,0,0,0,0,0,0,0,0,0,0,0,0,0,0,0,0,0,0,0,0,0,0,0,0,0,0,0,0,0,0,0,0,0,0,0],"id":28,"left_children":[1,3,5,-1,7,9,11,-1,-1,13,15,17,19,21,23,25,27,29,31,33,35,-1,-1,-1,-1,-1,-1,-1,-1,-1,-1,-1,-1,-1,-1,-1,-1],"loss_changes":[4.295499E-1,1.4090693E-1,4.3092582E-1,0E0,3.2006934E-2,4.8559174E-1,3.1427872E-1,0E0,0E0,3.627116E-1,3.9514297E-1,2.2965527E-1,2.4407336E-1,2.7897537E-1,1.7798534E-1,5.171282E-1,2.3180097E-1,4.6492934E-2,2.0920183E-1,8.015646E-2,1.3290927E-1,0E0,0E0,0E0,0E0,0E0,0E0,0E0,0E0,0E0,0E0,0E0,0E0,0E0,0E0,0E0,0E0],"parents":[2147483647,0,0,1,1,2,2,4,4,5,5,6,6,9,9,10,10,11,11,12,12,13,13,14,14,15,15,16,16,17,17,18,18,19,19,20,20],"right_children":[2,4,6,-1,8,10,12,-1,-1,14,16,18,20,22,24,26,28,30,32,34,36,-1,-1,-1,-1,-1,-1,-1,-1,-1,-1,-1,-1,-1,-1,-1,-1],"split_conditions":[-5.6356236E-2,-6.367754E-2,-1.6722724E-2,3.014687E-2,-4.090151E-2,6.983811E-2,-7.793303E-2,-6.1204913E-3,9.530286E-3,-1.5120628E-2,4.794496E-2,3.4037918E-2,-1.004588E-3,-1.1933397E-1,7.553857E-3,1.8436142E-3,3.1942427E-2,7.2084456E-3,-7.4713305E-2,-2.1513787E-1,-2.037093E-1,-9.156323E-3,7.166507E-3,-2.0187004E-2,2.7851528E-4,-5.023382E-3,-2.070874E-2,-1.0282054E-2,5.4119863E-3,2.3050558E-2,3.3448936E-4,1.1899391E-2,-2.1518997E-3,1.2435825E-2,-6.840364E-3,8.932209E-4,-1.48215E-2],"split_indices":[15,329,1037,0,0,1199,1121,0,0,1445,959,1238,701,224,1110,1075,782,0,186,9,400,0,0,0,0,0,0,0,0,0,0,0,0,0,0,0,0],"split_type":[0,0,0,0,0,0,0,0,0,0,0,0,0,0,0,0,0,0,0,0,0,0,0,0,0,0,0,0,0,0,0,0,0,0,0,0,0],"sum_hessian":[4.09E2,1E1,3.99E2,5E0,5E0,3.1E2,8.9E1,1E0,4E0,1.15E2,1.95E2,5.6E1,3.3E1,9.9E1,1.6E1,1.41E2,5.4E1,1.3E1,4.3E1,1.2E1,2.1E1,1.1E1,8.8E1,8E0,8E0,1.16E2,2.5E1,1.1E1,4.3E1,1.2E1,1E0,2.6E1,1.7E1,1E1,2E0,9E0,1.2E1],"tree_param":{"num_deleted":"0","num_feature":"1536","num_nodes":"37","size_leaf_vector":"1"}},{"base_weights":[1.5297738E-3,-1.2598772E-1,8.737627E-3,5.9515476E-2,-1.7051707E-1,-1.9740311E-2,4.5540035E-2,7.3137167E-3,2.5143623E-4,-6.8851197E-3,-2.1561241E-1,-3.3658292E-2,-1.3808927E-2,2.0982754E-1,3.285456E-2,-4.8190714E-3,-2.2645159E-2,4.2448487E-2,-4.203639E-2,2.7865624E-2,9.455613E-2,-1.6662547E-2,6.8174906E-2,7.469628E-3,-4.0960154E-3,6.9414745E-3,-6.583383E-3,2.6718378E-3,1.02780005E-2,1.7606867E-4,-2.0425888E-2,1.435366E-2,3.1783879E-3],"categories":[],"categories_nodes":[],"categories_segments":[],"categories_sizes":[],"default_left":[0,0,0,0,0,0,0,0,0,0,0,0,0,0,0,0,0,0,0,0,0,0,0,0,0,0,0,0,0,0,0,0,0],"id":29,"left_children":[1,3,5,7,9,11,13,-1,-1,-1,15,-1,17,19,21,-1,-1,23,25,-1,27,29,31,-1,-1,-1,-1,-1,-1,-1,-1,-1,-1],"loss_changes":[3.779431E-1,1.9187582E-1,4.0859303E-1,3.698364E-3,6.767863E-2,4.0880156E-1,3.4739718E-1,0E0,0E0,0E0,1.0863721E-2,0E0,3.463813E-1,6.885916E-2,2.7922082E-1,0E0,0E0,1.9941092E-1,3.891464E-1,0E0,6.0121715E-4,2.319204E-1,2.5048935E-1,0E0,0E0,0E0,0E0,0E0,0E0,0E0,0E0,0E0,0E0],"parents":[2147483647,0,0,1,1,2,2,3,3,4,4,5,5,6,6,10,10,12,12,13,13,14,14,17,17,18,18,20,20,21,21,22,22],"right_children":[2,4,6,8,10,12,14,-1,-1,-1,16,-1,18,20,22,-1,-1,24,26,-1,28,30,32,-1,-1,-1,-1,-1,-1,-1,-1,-1,-1],"split_conditions":[-4.2189736E-2,6.941208E-2,3.8862113E-2,6.9004353E-3,-9.7746765E-3,-1.5504868E-1,-5.1510416E-2,7.3137167E-3,2.5143623E-4,-6.8851197E-3,-1.11842975E-2,-3.3658292E-2,-4.2162307E-2,1.9766696E-2,-5.794332E-2,-4.8190714E-3,-2.2645159E-2,-9.981606E-3,2.4003074E-2,2.7865624E-2,-3.6080822E-2,9.6838176E-2,-1.1253529E-2,7.469628E-3,-4.0960154E-3,6.9414745E-3,-6.583383E-3,2.6718378E-3,1.02780005E-2,1.7606867E-4,-2.0425888E-2,1.435366E-2,3.1783879E-3],"split_indices":[1108,96,1406,1,1137,38,15,0,0,0,1,0,934,276,680,0,0,1224,1014,0,7,1228,1295,0,0,0,0,0,0,0,0,0,0],"split_type":[0,0,0,0,0,0,0,0,0,0,0,0,0,0,0,0,0,0,0,0,0,0,0,0,0,0,0,0,0,0,0,0,0],"sum_hessian":[4.09E2,2.1E1,3.88E2,4E0,1.7E1,2.19E2,1.69E2,3E0,1E0,6E0,1.1E1,3E0,2.16E2,1.1E1,1.58E2,1E0,1E1,7.2E1,1.44E2,6E0,5E0,6.6E1,9.2E1,5.2E1,2E1,2.5E1,1.19E2,1E0,4E0,6.1E1,5E0,2.9E1,6.3E1],"tree_param":{"num_deleted":"0","num_feature":"1536","num_nodes":"33","size_leaf_vector":"1"}},{"base_weights":[1.3314233E-3,7.989293E-2,-9.306272E-3,-8.321826E-2,1.1867341E-1,7.562231E-3,-7.505885E-2,-1.1482534E-1,2.8806687E-3,1.9448316E-1,3.3139504E-2,-1.2586731E-2,7.077951E-2,-4.086783E-2,-2.483068E-1,-1.5078115E-2,-6.3095614E-3,2.9855252E-3,2.1024108E-1,-3.7028126E-2,8.30036E-2,1.0102276E-1,-2.2598477E-2,-6.668512E-3,1.40035E-1,-1.1098567E-1,3.9961305E-2,-2.6081404E-2,-5.5363537E-3,1.0866938E-2,2.3008225E-2,2.0722926E-3,-6.935748E-3,2.1370829E-3,1.0117332E-2,1.3403535E-2,1.2658358E-3,-4.011798E-3,5.2101943E-3,-1.0914595E-2,6.196733E-3,4.41267E-3,1.9649541E-2,-1.5420081E-2,2.6189804E-3,1.0003532E-2,-9.019025E-3],"categories":[],"categories_nodes":[],"categories_segments":[],"categories_sizes":[],"default_left":[0,0,0,0,0,0,0,0,0,0,0,0,0,0,0,0,0,0,0,0,0,0,0,0,0,0,0,0,0,0,0,0,0,0,0,0,0,0,0,0,0,0,0,0,0,0,0],"id":30,"left_children":[1,3,5,7,9,11,13,15,-1,17,19,21,23,25,27,-1,-1,-1,29,31,33,35,37,39,41,43,45,-1,-1,-1,-1,-1,-1,-1,-1,-1,-1,-1,-1,-1,-1,-1,-1,-1,-1,-1,-1],"loss_changes":[3.43386E-1,3.1982675E-1,4.0207902E-1,3.871555E-2,2.5292706E-1,3.6900827E-1,4.2819297E-1,5.3662434E-3,0E0,4.8201263E-2,7.305038E-2,2.5251737E-1,3.7639287E-1,3.6149168E-1,1.4518678E-2,0E0,0E0,0E0,1.3287783E-2,1.8240772E-2,1.1276051E-2,5.0811827E-2,2.677592E-1,2.4590674E-1,1.9168514E-1,2.0559242E-1,2.4358398E-1,0E0,0E0,0E0,0E0,0E0,0E0,0E0,0E0,0E0,0E0,0E0,0E0,0E0,0E0,0E0,0E0,0E0,0E0,0E0,0E0],"parents":[2147483647,0,0,1,1,2,2,3,3,4,4,5,5,6,6,7,7,9,9,10,10,11,11,12,12,13,13,14,14,18,18,19,19,20,20,21,21,22,22,23,23,24,24,25,25,26,26],"right_children":[2,4,6,8,10,12,14,16,-1,18,20,22,24,26,28,-1,-1,-1,30,32,34,36,38,40,42,44,46,-1,-1,-1,-1,-1,-1,-1,-1,-1,-1,-1,-1,-1,-1,-1,-1,-1,-1,-1,-1],"split_conditions":[-1.4080122E-4,1.35982055E-2,4.3467432E-2,1.5497302E-1,-6.331536E-2,2.0257638E-1,7.7819093E-3,-6.4476736E-2,2.8806687E-3,7.861923E-2,-5.8710817E-2,-4.1637123E-2,-7.2147645E-2,2.3161758E-2,3.9902247E-2,-1.5078115E-2,-6.3095614E-3,2.9855252E-3,-3.3725087E-2,1.4581967E-3,-5.995409E-2,4.383429E-2,1.2526934E-2,1.05430916E-1,-2.6324857E-2,3.91365E-3,5.912467E-2,-2.6081404E-2,-5.5363537E-3,1.0866938E-2,2.3008225E-2,2.0722926E-3,-6.935748E-3,2.1370829E-3,1.0117332E-2,1.3403535E-2,1.2658358E-3,-4.011798E-3,5.2101943E-3,-1.0914595E-2,6.196733E-3,4.41267E-3,1.9649541E-2,-1.5420081E-2,2.6189804E-3,1.0003532E-2,-9.019025E-3],"split_indices":[1342,947,1200,19,771,1532,124,10,0,8,192,1367,644,643,15,0,0,0,45,1,199,1103,1124,972,266,652,1103,0,0,0,0,0,0,0,0,0,0,0,0,0,0,0,0,0,0,0,0],"split_type":[0,0,0,0,0,0,0,0,0,0,0,0,0,0,0,0,0,0,0,0,0,0,0,0,0,0,0,0,0,0,0,0,0,0,0,0,0,0,0,0,0,0,0,0,0,0,0],"sum_hessian":[4.09E2,4.8E1,3.61E2,9E0,3.9E1,2.88E2,7.3E1,7E0,2E0,2E1,1.9E1,2.19E2,6.9E1,6.2E1,1.1E1,3E0,4E0,2E0,1.8E1,8E0,1.1E1,1.7E1,2.02E2,3.3E1,3.6E1,3.3E1,2.9E1,1E1,1E0,4E0,1.4E1,3E0,5E0,3E0,8E0,1.2E1,5E0,1.64E2,3.8E1,1.3E1,2E1,1.4E1,2.2E1,2.5E1,8E0,2E1,9E0],"tree_param":{"num_deleted":"0","num_feature":"1536","num_nodes":"47","size_leaf_vector":"1"}},{"base_weights":[1.2410516E-3,-1.8343261E-1,5.3724493E-3,-3.4300964E-2,-2.211415E-2,-2.3639629E-2,3.508648E-2,-4.218793E-3,-9.263516E-4,-1.3931426E-2,-2.3243609E-1,3.093187E-3,8.263783E-2,-1.0909363E-1,3.2470012E-3,-2.9173369E-2,-8.538067E-3,-8.8487044E-2,3.1927247E-2,1.117898E-1,-4.5886496E-3,3.2370805E-3,-1.3868135E-2,2.0597957E-3,-1.0099402E-2,8.491742E-3,-1.4752108E-2,-1.4910325E-2,4.8589795E-3,1.5009425E-2,5.5926535E-3,-1.1402591E-2,3.6737116E-3],"categories":[],"categories_nodes":[],"categories_segments":[],"categories_sizes":[],"default_left":[0,0,0,0,0,0,0,0,0,0,0,0,0,0,0,0,0,0,0,0,0,0,0,0,0,0,0,0,0,0,0,0,0],"id":31,"left_children":[1,3,5,7,-1,9,11,-1,-1,13,15,17,19,21,23,-1,-1,25,27,29,31,-1,-1,-1,-1,-1,-1,-1,-1,-1,-1,-1,-1],"loss_changes":[3.137992E-1,4.3026954E-2,3.4737986E-1,2.0160014E-4,0E0,4.1027766E-1,3.0248797E-1,0E0,0E0,3.207627E-1,5.357185E-2,3.1970072E-1,2.0393884E-1,1.3005751E-1,3.0413E-1,0E0,0E0,3.093933E-1,2.8475642E-1,1.199944E-1,9.916312E-2,0E0,0E0,0E0,0E0,0E0,0E0,0E0,0E0,0E0,0E0,0E0,0E0],"parents":[2147483647,0,0,1,1,2,2,3,3,5,5,6,6,9,9,10,10,11,11,12,12,13,13,14,14,17,17,18,18,19,19,20,20],"right_children":[2,4,6,8,-1,10,12,-1,-1,14,16,18,20,22,24,-1,-1,26,28,30,32,-1,-1,-1,-1,-1,-1,-1,-1,-1,-1,-1,-1],"split_conditions":[2.3455873E-2,1.8586682E-2,-3.1661388E-2,-2.8119879E-2,-2.211415E-2,4.39619E-2,-4.3117907E-3,-4.218793E-3,-9.263516E-4,6.506755E-2,-2.1089645E-1,1.4686829E-4,-2.3979226E-1,-1.0981906E-1,-5.8062114E-2,-2.9173369E-2,-8.538067E-3,-1.5423028E-2,8.1127845E-2,1.8005945E-2,3.9605573E-2,3.2370805E-3,-1.3868135E-2,2.0597957E-3,-1.0099402E-2,8.491742E-3,-1.4752108E-2,-1.4910325E-2,4.8589795E-3,1.5009425E-2,5.5926535E-3,-1.1402591E-2,3.6737116E-3],"split_indices":[1370,25,250,0,0,597,1282,0,0,791,9,1180,414,58,1039,0,0,1254,1280,755,874,0,0,0,0,0,0,0,0,0,0,0,0],"split_type":[0,0,0,0,0,0,0,0,0,0,0,0,0,0,0,0,0,0,0,0,0,0,0,0,0,0,0,0,0,0,0,0,0],"sum_hessian":[4.09E2,8E0,4.01E2,2E0,6E0,2.03E2,1.98E2,1E0,1E0,1.95E2,8E0,1.19E2,7.9E1,2.9E1,1.66E2,5E0,3E0,2.8E1,9.1E1,5.9E1,2E1,5E0,2.4E1,1.43E2,2.3E1,7E0,2.1E1,7E0,8.4E1,3.4E1,2.5E1,5E0,1.5E1],"tree_param":{"num_deleted":"0","num_feature":"1536","num_nodes":"33","size_leaf_vector":"1"}},{"base_weights":[9.045883E-4,-1.09829396E-1,7.164853E-3,4.9864672E-2,-1.4808722E-1,1.0501633E-2,-2.075832E-1,6.0648504E-3,3.3646822E-4,-6.4002885E-3,-1.8479581E-1,